{"scaler_mean": [0.18039573729038239, -4.974258899688721, -3.2565958499908447, 0.22697682678699493, -5.324440002441406, -3.2653679847717285, 0.2574673295021057, -5.338506698608398, -3.2663960456848145, 0.28624555468559265, -5.358498573303223, -3.2675540447235107, 0.14766789972782135, -5.32089376449585, -3.2575395107269287, 0.1224675104022026, -5.33831262588501, -3.2595269680023193, 0.09624353796243668, -5.35528039932251, -3.259997844696045, 0.3303714692592621, -5.353499412536621, -2.5751454830169678, 0.05941559746861458, -5.353880882263184, -2.528437376022339, 0.2151504009962082, -4.733312606811523, -2.9113194942474365, 0.11824259907007217, -4.735610008239746, -2.901277542114258, 0.42962348461151123, -3.978428840637207, -1.8733326196670532, -0.16273224353790283, -3.970834255218506, -1.8534764051437378, 0.48101770877838135, -1.778745412826538, -1.9352091550827026, -0.4119546413421631, -1.7519303560256958, -1.933817982673645, 0.4393998980522156, -0.9374971985816956, -2.5414249897003174, -0.36707136034965515, -0.8180409669876099, -2.6408603191375732, 0.47975873947143555, -0.7096365690231323, -2.9185001850128174, -0.3654407262802124, -0.5836094617843628, -3.0287909507751465, 0.45326751470565796, -0.8575150370597839, -3.113089084625244, -0.3317766785621643, -0.719814121723175, -3.1922218799591064, 0.42565545439720154, -0.8989683985710144, -2.643265962600708, -0.30965104699134827, -0.7781933546066284, -2.7338740825653076, 0.21238340437412262, 0.005447642412036657, -0.029261808842420578, -0.212383434176445, -0.005447737406939268, 0.032798729836940765, 0.2816915810108185, 2.389885902404785, -0.38058146834373474, -0.29984763264656067, 2.4349794387817383, -0.1623513251543045, 0.3254847526550293, 4.966684341430664, 1.812255859375, -0.2062280774116516, 5.035645008087158, 1.9808427095413208, 0.31717219948768616, 5.359624862670898, 2.0009377002716064, -0.19083282351493835, 5.419160842895508, 2.1613211631774902, 0.3423677980899811, 5.757547378540039, 0.9392203688621521, -0.17113138735294342, 5.838921546936035, 1.1173579692840576], "scaler_scale": [3.9969451427459717, 8.701501846313477, 6.773242950439453, 4.107547283172607, 9.138113975524902, 6.985057353973389, 4.085410118103027, 9.145325660705566, 6.985599517822266, 4.062500476837158, 9.141499519348145, 6.985671520233154, 4.110841274261475, 9.143620491027832, 6.814729690551758, 4.086151123046875, 9.158309936523438, 6.8166117668151855, 4.06380033493042, 9.17266845703125, 6.8164825439453125, 3.792555093765259, 9.011621475219727, 7.143393516540527, 3.8157641887664795, 9.050409317016602, 6.423257350921631, 3.7396647930145264, 8.30865478515625, 6.5812602043151855, 3.7508175373077393, 8.33337116241455, 6.350795269012451, 2.7463245391845703, 6.834496974945068, 7.5409674644470215, 2.7539093494415283, 6.910470962524414, 6.66232967376709, 2.7717480659484863, 4.323348045349121, 8.300631523132324, 2.5425949096679688, 4.3417229652404785, 7.557886600494385, 3.778996229171753, 5.314506530761719, 7.359833240509033, 3.2450926303863525, 5.501938343048096, 6.816689491271973, 4.119748115539551, 5.698173999786377, 8.030939102172852, 3.4934756755828857, 6.1044206619262695, 7.398285388946533, 4.184635639190674, 5.814429759979248, 7.740877628326416, 3.54848575592041, 6.162508010864258, 7.2539567947387695, 4.001983642578125, 5.637230396270752, 7.216363430023193, 3.4771788120269775, 5.952906608581543, 6.720712184906006, 0.2140028327703476, 0.28044500946998596, 3.2324905395507812, 0.21400290727615356, 0.2804456651210785, 3.2327218055725098, 2.1313416957855225, 4.8677802085876465, 5.088592529296875, 2.0166943073272705, 4.949191570281982, 4.415980815887451, 3.157291889190674, 9.459424018859863, 6.203033447265625, 3.171546220779419, 9.46439266204834, 6.001523017883301, 3.2405953407287598, 10.37267780303955, 6.341404914855957, 3.221269130706787, 10.277474403381348, 6.184186935424805, 4.222282409667969, 10.873136520385742, 6.42746639251709, 4.2251410484313965, 10.689957618713379, 6.209385395050049], "class_names": ["rigido", "casual", "corporativo"], "n_outputs": 3, "layers": [{"kernel": [[-0.03826460242271423, 0.1538625955581665, 0.08250834047794342, 0.028317073360085487, -0.11885207146406174, -0.10015489161014557, -0.14207524061203003, 0.12054510414600372, 0.0357683002948761, 0.07258614897727966, -0.15277285873889923, 0.14590418338775635, 0.10740199685096741, -0.1095142737030983, -0.10772857069969177, -0.10763851553201675, -0.061374492943286896, 0.014894450083374977, -0.029810085892677307, -0.07295691221952438, 0.030590474605560303, -0.12944206595420837, -0.06363227963447571, -0.03934735804796219, -0.0070821363478899, 0.08514494448900223, -0.12395532429218292, 0.0007852727430872619, 0.036685455590486526, -0.1419398933649063, 0.021841851994395256, -0.0914914458990097, -0.12921543419361115, 0.1412772685289383, 0.1467631310224533, 0.10732102394104004, -0.07150307297706604, -0.13381464779376984, 0.05983050912618637, 0.004644584842026234, -0.13482366502285004, -0.004337714519351721, -0.13898997008800507, 0.1271257996559143, -0.07456214725971222, 0.05659782513976097, -0.06753318011760712, -0.0067010316997766495, 0.002215858083218336, -0.10174861550331116, 0.14578330516815186, 0.08615626394748688, 0.14035426080226898, 0.12804338335990906, 0.03714827075600624, 0.13315416872501373, -0.1338752806186676, -0.11802758276462555, -0.15395377576351166, -0.05021155625581741, -0.05320737138390541, -0.07611428201198578, 0.11052733659744263, -0.04059957340359688, -0.05205168202519417, 0.01350716408342123, -0.10761582106351852, 0.08795004338026047, -0.14906984567642212, 0.14547793567180634, 0.0841970220208168, -0.0912206694483757, -0.1488831639289856, 0.10661450028419495, 0.08027948439121246, 0.07930425554513931, 0.08500184118747711, -0.11681360751390457, -0.05132283270359039, -0.11405857652425766, 0.11795685440301895, 0.032688066363334656, -0.06213255226612091, -0.13935111463069916, -0.05760469660162926, -0.06518416851758957, 0.0758010596036911, 0.05062330886721611, 0.13914747536182404, -0.006992820184677839, -0.11318356543779373, 0.06627390533685684, 0.07989972084760666, 0.028218263760209084, 0.08600922673940659, -0.00822251196950674, 0.015782026574015617, -0.040780987590551376, -0.15717265009880066, -0.14899569749832153, -0.14594794809818268, 0.03921458125114441, -0.09378083050251007, -0.01850690133869648, 0.1259320080280304, -0.09067193418741226, -0.03002600185573101, 0.08718488365411758, -0.09275457262992859, -0.14719127118587494, -0.05772848054766655, -0.08970911055803299, 0.13692645728588104, 0.09265639632940292, 0.048599254339933395, 0.13413837552070618, 0.09607183188199997, -0.09146212786436081, 0.12304800748825073, 0.0016020711045712233, 0.09498249739408493, 0.11543295532464981, -0.06624025106430054, -0.11905889213085175, -0.07420580834150314, -0.017894191667437553, 0.09627310186624527, 0.10364316403865814], [-0.1719580441713333, -0.0011539504630491138, -0.02742214873433113, -0.08256743103265762, -0.11819498240947723, -0.04939110577106476, 0.1385318785905838, -0.04527309536933899, 0.0030952882952988148, 0.0572810098528862, -0.01243212167173624, 0.17576934397220612, 0.14297346770763397, -0.09283585846424103, 0.004045435227453709, -0.06166335195302963, -0.07073855400085449, -0.1557626873254776, 0.04650560021400452, 0.0367804691195488, -0.15031959116458893, -0.07604072242975235, 0.11468114703893661, -0.09275694191455841, -0.11056417226791382, -0.017044497653841972, 0.1812255084514618, -0.07879573851823807, 0.07165385037660599, 0.10159338265657425, -0.07409107685089111, 0.08513785898685455, -0.04599955677986145, 0.06283369660377502, 0.02904852107167244, 0.0031247783917933702, -0.13805733621120453, 0.13242727518081665, -0.054681114852428436, -0.09473840147256851, -0.17180392146110535, 0.033506546169519424, 0.04768616333603859, -0.16045042872428894, 0.0009012033115141094, -0.09220939129590988, 0.04670357331633568, -0.11441291868686676, 0.049165915697813034, -0.029369954019784927, 0.13533644378185272, -0.1055784672498703, -0.03552047908306122, -0.1237570196390152, 0.13109903037548065, 0.11151055991649628, -0.06840599328279495, 0.04885301738977432, 0.1242402195930481, 0.024010473862290382, 0.01686082035303116, -0.08794143050909042, -0.14843721687793732, 0.1365424245595932, 0.14623679220676422, 0.06989097595214844, -0.04388297721743584, -0.04908698424696922, 0.07093269377946854, 0.12791404128074646, 0.12888388335704803, 0.0876077339053154, 0.024234825745224953, -0.13373760879039764, -0.11659970134496689, 0.12743081152439117, 0.013371363282203674, -0.16795021295547485, -0.12951648235321045, 0.047943491488695145, -0.17295944690704346, -0.11695350706577301, 0.018416304141283035, 0.07718278467655182, 0.04635218158364296, -0.08428884297609329, 0.07263971865177155, -0.08034195005893707, -0.04360034316778183, 0.08598912507295609, 0.03497098386287689, 0.1121116578578949, 0.06633501499891281, 0.01867755316197872, -0.1352836787700653, -0.03744535893201828, -0.07370594143867493, -0.10842230170965195, 0.1520383507013321, -0.02566222846508026, 0.13957396149635315, 0.04606066271662712, 0.12766820192337036, 0.00896999891847372, 0.029845105484128, 0.0036963943857699633, -0.10214868932962418, 0.06483526527881622, -0.0653175488114357, -0.1626967042684555, 0.02519793063402176, -0.12014694511890411, 0.12545038759708405, 0.14603468775749207, 0.14544634521007538, -0.009050174616277218, -0.12930168211460114, 0.13884684443473816, -0.006489559542387724, 0.13799913227558136, 0.16249191761016846, 0.12987066805362701, -0.043304573744535446, -0.03407018259167671, 0.14329589903354645, -0.04151095449924469, -0.11288455128669739, -0.0018283454701304436], [0.13572752475738525, 0.07125596702098846, 0.017625145614147186, -0.12349694222211838, 0.04381372407078743, 0.15529762208461761, -0.11123450100421906, -0.003973355051130056, 0.10887748003005981, 0.06736797839403152, 0.07449665665626526, 0.07563383132219315, -0.04024539515376091, -0.0520341582596302, 0.10740949213504791, 0.10773447155952454, 0.11114190518856049, 0.12488231062889099, 0.010208833031356335, 0.028059689328074455, 0.08647242933511734, 0.03821633383631706, 0.060052111744880676, 0.09406007826328278, 0.12409036606550217, -0.058431852608919144, -0.028420671820640564, -0.12483042478561401, 0.011978903785347939, -0.1389990746974945, 0.0009724904084578156, 0.017049111425876617, -0.08324464410543442, 0.03838072717189789, -0.14662013947963715, -0.16672594845294952, 0.11137472093105316, -0.025901222601532936, -0.1030811294913292, 0.012464701198041439, 0.07822587341070175, -0.07224158942699432, 0.022552795708179474, -0.14199329912662506, -0.15235669910907745, 0.01012610923498869, 0.009672031737864017, 0.0653916671872139, 0.07040517032146454, 0.16083493828773499, -0.0021815539803355932, -0.04514346644282341, 0.09886394441127777, -0.07757098972797394, -0.02589484304189682, -0.14288339018821716, -0.14774224162101746, 0.15084722638130188, 0.129786416888237, 0.059584908187389374, -0.007833844982087612, -0.10512412339448929, -0.1184098869562149, -0.094953753054142, 0.032913338392972946, 0.0761076807975769, 0.05631560832262039, -0.08214385062456131, 0.17588430643081665, 0.07013308256864548, 0.024723242968320847, 0.029901450499892235, -0.03586479276418686, -0.08888568729162216, -0.04852449521422386, 0.061886537820100784, -0.16738276183605194, -0.14773701131343842, -0.1553734987974167, -0.1655993014574051, 0.10802428424358368, 0.06465091556310654, -0.0020745883230119944, -0.12164606899023056, 0.004527526907622814, 0.008854030631482601, -0.09837058186531067, -0.015671497210860252, -0.026324288919568062, 0.04863652214407921, 0.038196686655282974, -0.1396968960762024, -0.033805862069129944, 0.034275200217962265, -0.005701626650989056, 0.12386881560087204, 0.04255376383662224, -0.12139587104320526, -0.1331246793270111, 0.048960406333208084, -0.16782858967781067, 0.018974125385284424, 0.15786464512348175, 0.05916990339756012, -0.04295086860656738, 0.05410869047045708, -0.017232023179531097, 0.002002644818276167, 0.13611193001270294, -0.04513080045580864, 0.12572482228279114, 0.10843992978334427, -0.10871250927448273, -0.1469298005104065, -0.10675931721925735, -0.14951997995376587, -0.10161533206701279, 0.04275992885231972, -0.13129739463329315, -0.0537431538105011, 0.1173316165804863, -0.1520759016275406, 0.0970403179526329, -0.0783914178609848, -0.11587875336408615, 0.060271695256233215, 0.0351012758910656, 0.1299409568309784], [0.07865701615810394, 0.10652721673250198, -0.06362073123455048, -0.10776423662900925, 0.07454510033130646, 0.11117435991764069, 0.16055253148078918, -0.027449743822216988, -0.035935547202825546, 0.09569843113422394, -0.04775939881801605, 0.13322554528713226, 0.11458635330200195, -0.039688631892204285, 0.07802563905715942, 0.07790365070104599, -0.12706968188285828, 0.13817232847213745, -0.005789073184132576, 0.1022503599524498, -0.06423232704401016, 0.11555714160203934, -0.032401278614997864, -0.15485669672489166, 0.13924729824066162, -0.14085836708545685, -0.0859774649143219, 0.142422154545784, 0.15329287946224213, 0.02987111732363701, 0.02990182302892208, -0.00031599702197127044, -0.0527411513030529, -0.05963173508644104, 0.05137893930077553, 0.09051021933555603, 0.0869593694806099, 0.09110473841428757, -0.13542667031288147, 0.020873643457889557, -0.1557341367006302, 0.009578731842339039, -0.004159591626375914, 0.11943726241588593, -0.045322220772504807, -0.12044232338666916, -0.12124217301607132, 0.07200177758932114, 0.025996150448918343, -0.12776878476142883, -0.14208528399467468, 0.06150045990943909, -0.14100795984268188, 0.10524754971265793, 0.0724751278758049, -0.14049196243286133, -0.13377529382705688, 0.13907751441001892, -0.04602457210421562, -0.03534147888422012, 0.0808665081858635, 0.14383889734745026, 0.16254040598869324, 0.08870097249746323, -0.020980266854166985, -0.13454964756965637, 0.09969677776098251, 0.009562715888023376, -0.036674611270427704, 0.11938844621181488, -0.13022497296333313, 0.0043457504361867905, -0.14719456434249878, -0.006032280623912811, -0.13191652297973633, -0.11639579385519028, -0.127477765083313, 0.06983255594968796, 0.07587724179029465, 0.04148275405168533, 0.15082673728466034, -0.0462188795208931, -0.0769825205206871, 0.1217813640832901, -0.08539547026157379, 0.13816402852535248, -0.15722830593585968, 0.1587931513786316, -0.1358855962753296, 0.12939970195293427, 0.0191437266767025, 0.15716606378555298, -0.1431027203798294, 0.029622048139572144, 0.1502554565668106, 0.0015190255362540483, 0.05062093213200569, 0.04430302977561951, -0.01678895205259323, 0.017622729763388634, 0.033699922263622284, 0.1254977285861969, -0.181016206741333, -0.09632609784603119, 0.1392344832420349, 0.11904595047235489, -0.014894874766469002, 0.04265939071774483, -0.0775269940495491, -0.11115945130586624, -0.0012257731286808848, -0.02431230992078781, 0.021326454356312752, -0.1449294537305832, 0.1581047624349594, 0.1712019294500351, 0.05892420932650566, 0.022467155009508133, -0.0657128170132637, 0.09111130237579346, 0.05517654865980148, -0.1230243369936943, 0.12643682956695557, 0.11240672320127487, 0.16005964577198029, 0.07921088486909866, 0.0292796790599823, -0.04217641055583954], [0.12908823788166046, 0.11478030681610107, -0.14842277765274048, -0.1460505574941635, -0.03469466790556908, 0.10431098937988281, 0.15253734588623047, -0.10134663432836533, 0.027725914493203163, -0.04850637540221214, 0.1809416115283966, 0.13430485129356384, 0.1026110127568245, -0.021281752735376358, -0.022483134642243385, -0.0704001858830452, -0.1455458700656891, 0.11334969848394394, 0.11242324858903885, 0.1985321342945099, 0.15644343197345734, 0.013965402729809284, 0.06955358386039734, 0.13695253431797028, 0.11841774731874466, -0.09495625644922256, 0.007582995109260082, -0.11527853459119797, 0.16439400613307953, 0.05129512399435043, -0.07651276886463165, 0.0674189105629921, 0.03552190214395523, -0.025969063863158226, -0.13952170312404633, 0.047193657606840134, 0.0014540163101628423, 0.11205389350652695, 0.01018757838755846, 0.12279445677995682, -0.0059235733933746815, 0.024168891832232475, 0.11180520057678223, -0.03586350753903389, -0.12292488664388657, -0.15549086034297943, 0.0825953409075737, 0.03155836835503578, 0.053115516901016235, -0.08588366210460663, -0.12500247359275818, -0.1448851078748703, -0.03217846155166626, 0.03160148859024048, -0.0421140119433403, -0.03156118467450142, 0.14062237739562988, -0.05254513770341873, 0.026866339147090912, 0.0997062399983406, -0.02626880258321762, 0.035670846700668335, 0.10152202844619751, 0.15413610637187958, -0.09821625798940659, 0.16365745663642883, 0.006162282545119524, -0.07868983596563339, -0.014809600077569485, 0.15476062893867493, 0.0008589589269831777, -0.059161145240068436, 0.02135617658495903, -0.08344157040119171, -0.14465220272541046, -0.12274868786334991, -0.14226767420768738, -0.12189449369907379, -0.1173059344291687, 0.040620338171720505, -0.1156039834022522, -0.056975625455379486, 0.13151809573173523, 0.006673608440905809, 0.053254712373018265, -0.10108725726604462, -0.0963679775595665, -0.1441541165113449, -0.09503761678934097, -0.06578660756349564, -0.11865763366222382, -0.13494513928890228, -0.10877037793397903, -0.01620936580002308, -0.0988951250910759, -0.03831316530704498, 0.0035660145804286003, 0.03639708086848259, -0.15065498650074005, 0.10571520030498505, 0.051786504685878754, -0.13125237822532654, 0.15381625294685364, 0.14640364050865173, -0.13961561024188995, -0.06616105139255524, 0.09537334740161896, 0.07374054938554764, -0.09797162562608719, -0.10261475294828415, -0.0638837218284607, -0.020739497616887093, 0.020836057141423225, -0.04517434164881706, -0.0020854466129094362, 0.11133169382810593, -0.12175104767084122, -0.08172927796840668, 0.08563800156116486, 0.11451905220746994, 0.01585046388208866, 0.025385864078998566, -0.10432831197977066, -0.013476317748427391, 0.038084615021944046, -0.06477054208517075, -0.08084466308355331, -0.06000541150569916], [-0.16217897832393646, -0.048558492213487625, -0.0990210548043251, -0.04864010959863663, -0.1173168495297432, 0.12444469332695007, 0.036601196974515915, 0.04845031723380089, 0.08290036767721176, -0.010817795991897583, -0.12373123317956924, 0.02163427323102951, 0.030934710055589676, 0.09190352261066437, -0.015332452952861786, -0.11419945955276489, -0.07840342074632645, -0.053253721445798874, 0.05389326438307762, 0.052132319658994675, -0.05698216333985329, 0.1480311006307602, 0.028596602380275726, -0.0879233330488205, -0.1307021826505661, -0.11880194395780563, -0.07101712375879288, -0.10324866324663162, -0.11450865119695663, -0.05518997460603714, -0.09456165134906769, 0.1354917734861374, -0.1469474881887436, 0.017290472984313965, -0.02303468994796276, 0.14130879938602448, -0.1196213886141777, -0.013888824731111526, 0.16929104924201965, 0.12450512498617172, 0.09208422154188156, -0.05890761688351631, -0.12379208207130432, 0.047546595335006714, 0.13301751017570496, 0.018384724855422974, 0.019323598593473434, -0.050856269896030426, 0.08317925781011581, -0.09535941481590271, -0.0646514818072319, -0.012109311297535896, 0.004843709524720907, -0.08709552139043808, -0.13126599788665771, 0.02924419939517975, -0.06212719529867172, 0.026691606268286705, -0.0922282338142395, -0.009981466457247734, 0.02809048444032669, -0.1436503380537033, -0.059846580028533936, -0.12587814033031464, -0.12299465388059616, 0.16592685878276825, -0.04971194639801979, 0.09253773093223572, -0.054622989147901535, 0.05037318915128708, 0.0916350707411766, 0.024838048964738846, -0.019773120060563087, -0.035412587225437164, -0.050623077899217606, 0.11869394779205322, 0.097685307264328, 0.12839704751968384, -0.1284264773130417, 0.06291213631629944, 0.13504396378993988, -0.104285329580307, -0.13496273756027222, 0.08768289536237717, 0.031647924333810806, 0.12767654657363892, -0.10961809009313583, 0.1020951122045517, -0.090033620595932, -0.09879186749458313, -0.11533170938491821, 0.1104474738240242, 0.06081328168511391, 0.0019248983589932323, -0.052700404077768326, 0.13050660490989685, -0.04362720623612404, 0.08833234012126923, -0.013195479288697243, -0.040772128850221634, -0.026307739317417145, -0.07532360404729843, 0.09746039658784866, 0.034292276948690414, -0.09363307058811188, 0.13736268877983093, -0.04057934880256653, 0.0008258079760707915, 0.12469527870416641, 0.03220680356025696, -0.14844028651714325, 0.1209149956703186, 0.0319349505007267, -0.060800984501838684, -0.09678154438734055, 0.10344260931015015, 0.07021746784448624, -0.005430884193629026, 0.1361597180366516, 0.09760068356990814, -0.10763747245073318, -0.05790408328175545, -0.0853063315153122, 0.07215576618909836, -0.1427726447582245, 0.01919688656926155, 0.07849195599555969, 0.12504363059997559], [-0.04906458407640457, 0.11208028346300125, -0.11928484588861465, 0.10942796617746353, -0.12803548574447632, -0.02202148735523224, 0.0975787490606308, -0.11300814151763916, -0.08123177289962769, 0.07825859636068344, 0.07556013017892838, 0.03905758261680603, 0.06025134399533272, -0.002629899187013507, -0.08423313498497009, -0.05515702813863754, -0.10146235674619675, 0.14035770297050476, 0.019550859928131104, -0.03561452031135559, -0.017949406057596207, 0.13250499963760376, -0.109079509973526, 0.03226029500365257, 0.009509571827948093, 0.028343208134174347, -0.18429997563362122, 0.11694366484880447, 0.14733393490314484, 0.027296150103211403, 0.05103205144405365, 0.154494047164917, 0.08276551961898804, -0.11659116297960281, 0.020077787339687347, 0.04363929107785225, -0.03247282654047012, 0.0734974592924118, 0.13748319447040558, 0.16077928245067596, -0.027914375066757202, -0.13384410738945007, 0.17364521324634552, 0.10365693271160126, -0.11889557540416718, 0.1409546583890915, 0.11539718508720398, -0.006979677360504866, 0.017469340935349464, -0.030679617077112198, -0.1514914631843567, -0.05764017999172211, 0.09638070315122604, -0.16008010506629944, -0.04853155463933945, -0.03755633905529976, 0.013407102786004543, 0.11751694977283478, -0.05481657013297081, -0.04284590855240822, 0.05486859381198883, -0.01628822460770607, -0.08549833297729492, -0.008803441189229488, -0.09761913120746613, -0.10430388897657394, 0.009169713594019413, -0.035215750336647034, 0.12228865176439285, -0.05750448256731033, 0.022388869896531105, 0.049785859882831573, -0.14656077325344086, 0.05746456980705261, -0.09274964034557343, 0.15861904621124268, -0.11726692318916321, -0.006386261899024248, -0.13779887557029724, 0.17740383744239807, 0.0015659265918657184, 0.025994032621383667, -0.1481502205133438, 0.0828758105635643, -0.08990402519702911, 0.11608223617076874, -0.09473127126693726, -0.09469928592443466, -0.1381392925977707, -0.007012524642050266, 0.0310805756598711, -0.14440657198429108, 0.08498869836330414, -0.0017698700539767742, 0.00577186793088913, -0.02528989128768444, -0.02363552153110504, -0.002178603084757924, -0.11416727304458618, -0.12803353369235992, 0.1238686814904213, 0.1401825100183487, -0.07424164563417435, -0.10057459771633148, 0.039878882467746735, -0.037421535700559616, -0.15492111444473267, -0.10846512764692307, 0.06499682366847992, 0.04193238914012909, -0.14314021170139313, -0.06425688415765762, -0.09328915178775787, 0.048460591584444046, -0.15366846323013306, -0.11555401235818863, 0.09105643630027771, -0.09377948194742203, 0.045767176896333694, -0.09603754431009293, -0.13505959510803223, -0.09688404947519302, 0.06521449238061905, 0.12310229241847992, 0.12119405716657639, -0.027742350473999977, 0.046960994601249695, -0.11233442276716232], [-0.07896487414836884, 0.12441886961460114, -0.15886053442955017, -0.12681657075881958, -0.08953732997179031, -0.15055729448795319, -0.10965278744697571, 0.03930860757827759, -0.028359537944197655, 0.1181894838809967, 0.1312333643436432, -0.02826436050236225, -0.08568226546049118, -0.05045606940984726, 0.03457684442400932, -0.07218676805496216, 0.039082661271095276, -0.034657612442970276, 0.027737190946936607, 0.015250292606651783, -0.0718269869685173, 0.14175398647785187, 0.06773433089256287, -0.12456541508436203, 0.12453098595142365, -0.01681564189493656, 0.15190905332565308, 0.10278532654047012, -0.0074454182758927345, -0.13849639892578125, -0.06349684298038483, 0.025284262374043465, 0.04054806008934975, -0.05846945196390152, -0.13105851411819458, 0.10032341629266739, 0.15213029086589813, 0.03188823163509369, -0.10314104706048965, -0.06557898968458176, -0.17953383922576904, 0.13908207416534424, -0.1349177360534668, 0.02036317251622677, -0.07736749947071075, 0.015506028197705746, 0.04892774671316147, 0.09972149133682251, -0.1086495891213417, -0.15154065191745758, -0.12482789903879166, 0.14310765266418457, 0.13827332854270935, 0.03405860438942909, 0.025604350492358208, 0.04241374135017395, -0.096530981361866, 0.13150198757648468, -0.0040926518850028515, -0.030501296743750572, 0.013459905982017517, -0.15131671726703644, -0.1246626153588295, 0.08551587909460068, -0.11893191188573837, 0.05831858888268471, -0.0740124061703682, -0.03602515906095505, -0.07033438235521317, -0.04831099137663841, 0.07445771992206573, -0.06941913068294525, -0.0003966885560657829, -0.006561340298503637, 0.046645570546388626, 0.14010420441627502, 0.05436299368739128, -0.10142282396554947, -0.15228557586669922, -0.08243178576231003, 0.018794352188706398, -0.15273432433605194, 0.0012373047647997737, 0.0467396043241024, -0.055131640285253525, 0.0934663638472557, -0.124311164021492, -0.13300396502017975, 0.08690616488456726, 0.004638024140149355, 0.047628987580537796, -0.022493140771985054, -0.06783879548311234, 0.10032414644956589, 0.09396054595708847, 0.0691058486700058, -0.07163659483194351, 0.003947337623685598, -0.04608064144849777, -0.12467535585165024, 0.14594490826129913, -0.11319074034690857, 0.17867591977119446, -0.008132530376315117, -0.09939984232187271, 0.020020494237542152, 0.11709844321012497, 0.06866814941167831, 0.104230597615242, 0.04348614066839218, 0.04083626717329025, 0.09804751724004745, -0.0989866629242897, -0.005984410643577576, -0.08032719790935516, 0.18936288356781006, 0.17311841249465942, -0.1507454365491867, 0.08318133652210236, 0.12419424951076508, -0.09169576317071915, 0.03708140179514885, 0.15845541656017303, -0.14785142242908478, 0.09157520532608032, -0.04653521627187729, 0.13215965032577515, 0.13314376771450043], [0.13832911849021912, 0.0009183883084915578, 0.11252275109291077, 0.11948287487030029, -0.0525006428360939, 0.10441574454307556, -0.1443774700164795, 0.021516406908631325, -0.09891261905431747, -0.13368362188339233, -0.12697088718414307, 0.07339327782392502, -0.04937396198511124, 0.08517671376466751, -0.13443821668624878, -0.05316408351063728, 0.004743988160043955, 0.08579698204994202, -0.05248647928237915, 0.07005777209997177, 0.11531209200620651, 0.02751469798386097, -0.09262638539075851, -0.1571250706911087, 0.11912357807159424, -0.1615898460149765, 0.13342201709747314, 0.01649165153503418, 0.13017266988754272, 0.11183680593967438, 0.17354820668697357, -0.04204926639795303, 0.07641570270061493, -0.022564223036170006, -0.0004428697284311056, 0.02591829188168049, 0.12802854180335999, 0.17672377824783325, 0.10386966168880463, -0.0210788082331419, -0.03657359257340431, 0.09705853462219238, -0.101719930768013, -0.1339450478553772, -0.05386706814169884, -0.06925609707832336, -0.07019544392824173, -0.06592792272567749, -0.15333223342895508, -0.15036508440971375, 0.15126614272594452, -0.011351719498634338, -0.03523993119597435, 0.05507524684071541, -0.09763877838850021, 0.13958004117012024, 0.09970767050981522, -0.13322079181671143, -0.006643817760050297, 0.11942629516124725, 0.16209030151367188, -0.008530812337994576, 0.03016114979982376, -0.11525672674179077, 0.17867672443389893, -0.0806342139840126, 0.15201985836029053, 0.04043883830308914, 0.0601770356297493, -0.004518427886068821, -0.08055426180362701, -0.11143808811903, -0.10142026096582413, -0.10870272666215897, 0.08941862732172012, -0.06967797130346298, -0.15358491241931915, 0.12972195446491241, 0.1185205727815628, 0.12693364918231964, 0.1534370630979538, -0.10666357725858688, -0.027744276449084282, 0.09324920922517776, 0.07116936147212982, -0.09600692987442017, 0.11020638048648834, -0.08351284265518188, -0.08281861245632172, 0.02259478159248829, 0.024056123569607735, 0.034202154725790024, -0.1257323920726776, 0.11715677380561829, -0.08301469683647156, -0.11260823905467987, 0.11775030195713043, 0.13355238735675812, 0.12434331327676773, 0.0998697429895401, 0.03630650416016579, 0.005798977799713612, -0.11733416467905045, 0.003641481278464198, -0.047955941408872604, -0.07067859917879105, 0.06982053816318512, -0.014683568850159645, -0.14369633793830872, -0.09917379170656204, 0.035714078694581985, -0.15991675853729248, 0.1046072468161583, -0.008696960285305977, 0.014205393381416798, 0.03788742050528526, 0.1367521584033966, -0.06579910218715668, 0.06596587598323822, 0.025135677307844162, -0.07012845575809479, 0.12642955780029297, 0.0931837186217308, 0.0443560816347599, 0.12289759516716003, 0.11590027809143066, 0.060901422053575516, 0.11210095882415771], [0.06652190536260605, 0.06605329364538193, 0.045948099344968796, 0.07851538062095642, -0.1179194301366806, 0.13544628024101257, 0.12161970138549805, -0.1524423360824585, 0.11458632349967957, -0.11416026204824448, -0.049585677683353424, 0.0722777396440506, -0.11435150355100632, 0.08654376864433289, 0.10449011623859406, -0.002798832952976227, -0.15836413204669952, -0.061270322650671005, 0.03048119693994522, 0.15350335836410522, 0.03763628751039505, -0.09101385623216629, 0.047227416187524796, 0.01723739691078663, 0.09871275722980499, -0.13566701114177704, 0.05630084127187729, 0.00916978158056736, 0.1574440449476242, -0.045285411179065704, 0.029961848631501198, 0.1583368182182312, -0.11284206807613373, 0.13878101110458374, 0.056373775005340576, -0.13083180785179138, -0.07250713557004929, 0.0640706941485405, -0.1460719257593155, 0.04900749772787094, -0.062388233840465546, 0.02915041148662567, -0.12986153364181519, 0.11439428478479385, 0.15712466835975647, 0.15668833255767822, 0.07661153376102448, -0.1333543360233307, 0.07198663800954819, -0.15210343897342682, -0.16189931333065033, -0.06172826886177063, -0.005602643825113773, 0.08909779787063599, 0.06539784371852875, -0.022082120180130005, -0.07236158102750778, 0.14293795824050903, -0.028751417994499207, -0.008846113458275795, -0.13405518233776093, 0.09679640084505081, 0.06706134229898453, -0.08584189414978027, -0.1167154610157013, 0.0595971941947937, 0.0601327084004879, -0.08132702857255936, 0.13309551775455475, -0.12617561221122742, -0.025876546278595924, 0.15104275941848755, -0.014105849899351597, 0.04955921694636345, -0.021747400984168053, -0.06324585527181625, 0.1546667069196701, -0.00810581911355257, 0.12669044733047485, -0.0699014887213707, -0.09186898916959763, -0.15648366510868073, 0.04181531444191933, -0.04157682880759239, 0.12283588945865631, -0.02391275204718113, 0.1529422402381897, -0.09651221334934235, 0.13253051042556763, 0.09140441566705704, 0.09796443581581116, 0.10884351283311844, 0.08014428615570068, 0.055793844163417816, -0.12187694013118744, -0.15816263854503632, 0.14554129540920258, 0.01562603749334812, 0.09429611265659332, -0.03153812885284424, -0.11819731444120407, -0.1266486793756485, 0.027343038469552994, -0.051059771329164505, -0.10416994988918304, -0.010433848947286606, -0.1419830471277237, 0.029915107414126396, -0.08057676255702972, 0.08698563277721405, -0.05088559538125992, 0.013447096571326256, -0.16455698013305664, -0.14619916677474976, -0.032621853053569794, 0.006728219334036112, 0.021476391702890396, -0.05658084154129028, 0.05930548906326294, 0.10608991235494614, 0.08626142889261246, -0.1630713939666748, -0.013335257768630981, -0.1210939884185791, -0.07005398720502853, 0.16390693187713623, -0.12403109669685364, -0.017139768227934837], [0.026646669954061508, 0.0612621083855629, 0.018908122554421425, -0.1514466255903244, -0.05096421018242836, 0.009143851697444916, -0.14030545949935913, -0.036306384950876236, -0.15451186895370483, -0.14669688045978546, -0.005587799474596977, -0.09634776413440704, 0.0144457146525383, 0.050196483731269836, 0.10295341908931732, -0.09431223571300507, -0.10942667722702026, -0.1337539553642273, 0.055192504078149796, 0.1031063124537468, -0.157307431101799, 0.1377914845943451, -0.16365374624729156, 0.005926582962274551, 0.07268758118152618, 0.1080562099814415, 0.09318845719099045, 0.10337059944868088, -0.03507202863693237, 0.1189432293176651, -0.12473074346780777, 0.14043787121772766, 0.012702913023531437, 0.12367162108421326, -0.02917063795030117, 0.038120169192552567, 0.0028185290284454823, 0.09858143329620361, -0.13242849707603455, -0.1347583830356598, -0.10528957098722458, -0.1062585860490799, 0.11028414219617844, -0.09575507789850235, 0.15091097354888916, -0.05520244315266609, -0.10360885411500931, 0.08677077293395996, 0.03835781663656235, 0.006871526129543781, 0.011278359219431877, 0.08453360199928284, -0.07153001427650452, 0.16389897465705872, 0.1473412811756134, 0.037588708102703094, -0.0888759195804596, 0.05533894896507263, -0.11656899005174637, -0.14468002319335938, -0.07151086628437042, -0.01610402576625347, 0.1034981980919838, 0.08245895057916641, 0.09578178822994232, 0.0002696162846405059, -0.041233960539102554, -0.04190949723124504, 0.15695257484912872, -0.15110176801681519, 0.12251929193735123, 0.022139238193631172, -0.04193074628710747, 0.0747145563364029, -0.010442412458360195, 0.11975675076246262, 0.10910097509622574, -0.03426370024681091, -0.07235289365053177, 0.024947883561253548, 0.12199041992425919, -0.1010708436369896, 0.042314909398555756, 0.05824650824069977, 0.07455265522003174, -0.11444312334060669, 0.07368078827857971, 0.1381809115409851, -0.09145596623420715, -0.07925247400999069, 0.13986587524414062, -0.10510214418172836, 0.12988589704036713, -0.005913252010941505, -0.08558246493339539, 0.12633542716503143, -0.015393554233014584, -0.02061638981103897, -0.04667162150144577, 0.0380060113966465, -0.09881653636693954, -0.0302264541387558, 0.18505029380321503, -0.06910544633865356, 0.05406058952212334, -0.05042111128568649, 0.0844106376171112, -0.12665513157844543, 0.15728837251663208, -0.02325340174138546, -0.10731776803731918, -0.15418368577957153, -0.12480397522449493, 0.00395381823182106, -0.04288396239280701, 0.13770978152751923, 0.006250159349292517, -0.08266601711511612, 0.05449747294187546, 0.05309170484542847, -0.09586378931999207, -0.09307736158370972, -0.127299964427948, 0.08066543936729431, 0.08053873479366302, 0.011284446343779564, 0.10600157827138901, 0.07935357838869095], [0.021626552566885948, 0.12905927002429962, -0.10084381699562073, -0.11873600631952286, -0.068546824157238, -0.14652812480926514, 0.016300981864333153, 0.13217563927173615, -0.16090203821659088, -0.13318295776844025, -0.004957129713147879, 0.15064646303653717, -0.05708909407258034, 0.014437880367040634, -0.1421719342470169, -0.10744738578796387, 0.15013468265533447, 0.14250268042087555, -0.15452466905117035, 0.17603635787963867, 0.03504462540149689, 0.10947577655315399, -0.020513808354735374, 0.0025898627936840057, -0.004832101054489613, 0.04832730069756508, -0.10556600987911224, -0.14574961364269257, -0.07503967732191086, 0.08123600482940674, -0.0853024572134018, 0.06288278102874756, 0.1423390805721283, -0.12272024154663086, 0.0622236430644989, -0.033827971667051315, 0.126230388879776, -0.08565496653318405, 0.07926587015390396, 0.11559660732746124, 0.13356024026870728, 0.0793876200914383, -0.01770693063735962, 0.031030410900712013, 0.11335521191358566, 0.022880855947732925, -0.156659334897995, 0.16080790758132935, 0.05718143656849861, 0.06379501521587372, -0.09976984560489655, 0.06379575282335281, -0.03213935345411301, 0.04583725333213806, -0.1339464634656906, 0.04459414631128311, 0.1689889132976532, -0.14661353826522827, 0.1753101646900177, -0.034113187342882156, 0.13802877068519592, 0.09388110786676407, 0.015076829120516777, 0.07054118067026138, 0.14204642176628113, -0.024553317576646805, -0.04816105216741562, 0.04627624526619911, 0.12523356080055237, 0.07664678990840912, 0.10385531932115555, -0.02720520831644535, 0.09280042350292206, -0.13023722171783447, 0.012970924377441406, -0.18164841830730438, -0.06685751676559448, -0.06622463464736938, -0.0400284007191658, 0.051411841064691544, -0.04372263327240944, -0.017312169075012207, -0.07934552431106567, -0.03193110227584839, -0.08124791085720062, -0.1222459077835083, 0.04114929586648941, 0.06078219413757324, 0.04583587497472763, -0.0012978215236216784, -0.045253314077854156, 0.1263013333082199, 0.013303342275321484, -0.012344082817435265, -0.16103851795196533, -0.043761659413576126, -0.047608423978090286, -0.047498077154159546, 0.032663676887750626, 0.010162411257624626, 0.020927056670188904, 0.07539521157741547, 0.11874698847532272, 0.10432954132556915, 0.14155752956867218, -0.14921030402183533, -0.10174431651830673, -0.17345969378948212, 0.04048172011971474, 0.12123115360736847, -0.10727792978286743, 0.11675756424665451, -0.15257135033607483, 0.13414093852043152, -0.027725305408239365, -0.1217571422457695, 0.026597026735544205, -0.09540501236915588, -0.0618659146130085, -0.058896783739328384, 0.10415439307689667, 0.016051480546593666, -0.06488225609064102, 0.02871093712747097, 0.07918745279312134, -0.07745884358882904, -0.034958742558956146, -0.1204356998205185], [-0.1014707088470459, 0.06608595699071884, -0.09645462781190872, 0.005547135602682829, 0.061037372797727585, -0.11566879600286484, 0.02314772456884384, -0.07780509442090988, 0.15464724600315094, -0.00035425066016614437, 0.10341806709766388, 0.009653334505856037, -0.14783068001270294, 0.02706146240234375, 0.14297157526016235, 0.02827613800764084, 0.1056327074766159, 0.13152869045734406, -0.09594933688640594, -0.09836623072624207, 0.02993086911737919, -0.041901085525751114, 0.11425937712192535, 0.13427762687206268, -0.04060758277773857, -0.0934852883219719, 0.06400752812623978, -0.07689789682626724, 0.11141730099916458, -0.01895398274064064, 0.04181035980582237, -0.1160496398806572, 0.05371173471212387, -0.020287182182073593, 0.023491544649004936, -0.0996071994304657, 0.06905822455883026, 0.11555958539247513, -0.09362349659204483, -0.10864098370075226, -0.16638198494911194, 0.04133642092347145, 0.047440238296985626, 0.008584334515035152, -0.08390045166015625, -0.031534381210803986, 0.025306744500994682, -0.013803226873278618, 0.14581462740898132, -0.11690597236156464, 0.05643782392144203, -0.03436144441366196, -0.025434069335460663, 0.07105452567338943, 0.06781721115112305, 0.1556551605463028, -0.11985424160957336, -0.14856675267219543, 0.0687813088297844, 0.032062042504549026, -0.09203754365444183, -0.1389186978340149, -0.13051414489746094, 0.13345177471637726, -0.08098924160003662, -0.05678153783082962, -0.07973653078079224, -0.05807184427976608, -0.1499730348587036, -0.006458472926169634, -0.14444367587566376, 0.10427654534578323, -0.0764089971780777, 0.01695937290787697, 0.13689139485359192, 0.053706374019384384, 0.007692459039390087, -0.03594622015953064, -0.05928587168455124, 0.06748351454734802, 0.16074538230895996, 0.045293454080820084, 0.011688604019582272, 0.07709432393312454, -0.0069961873814463615, -0.15397675335407257, 0.021960821002721786, 0.1547853797674179, -0.09320516139268875, 0.06460176408290863, -0.0868314653635025, 0.008649185299873352, -0.1357300728559494, -0.0054222596809268, 0.08094315975904465, -0.05536336451768875, 0.061883460730314255, 0.07944215834140778, 0.1367192417383194, -0.10875211656093597, -0.026381921023130417, -0.11815622448921204, 0.12676185369491577, 0.11663966625928879, 0.005779745057225227, 0.10320740938186646, 0.005757464561611414, 0.04465172067284584, -0.13856422901153564, 0.07321938127279282, -0.1107407733798027, 0.1263420134782791, 0.08558804541826248, 0.060198936611413956, -0.14630737900733948, -0.05123152956366539, -0.08019857108592987, -0.035097066313028336, -0.13774265348911285, 0.13180558383464813, 0.012331287376582623, -0.07674036920070648, -0.0417260080575943, -0.009477582760155201, 0.04624573513865471, 0.010911308228969574, 0.12880638241767883, -0.014035230502486229], [0.14852392673492432, 0.11026907712221146, -0.09538919478654861, 0.14794963598251343, -0.11927203088998795, 0.10645173490047455, -0.04459875822067261, 0.13522855937480927, 0.11674033850431442, 0.08973105996847153, 0.12396708875894547, -0.04067336767911911, -0.14366713166236877, -0.0422692596912384, -0.10104287415742874, 0.0666775032877922, -0.05118197575211525, 0.14935162663459778, 0.05644252896308899, 0.14094388484954834, -0.12441681325435638, 0.11363043636083603, 0.1195080503821373, -0.011993367224931717, 0.03926311060786247, 0.07308704406023026, -0.08186489343643188, 0.006092009600251913, -0.016507770866155624, -0.09808957576751709, -0.03137746453285217, -0.12936578691005707, -0.15710151195526123, -0.09865761548280716, 0.13668778538703918, 0.0074530416168272495, 0.1469518393278122, 0.0016698874533176422, -0.057523325085639954, 0.009732521139085293, -0.042345013469457626, -0.12387474626302719, 0.03503783419728279, -0.09641238301992416, 0.035309165716171265, 0.04627247154712677, -0.11355987936258316, -0.15008561313152313, 0.07796304672956467, -0.005704923067241907, -0.150345116853714, 0.17376115918159485, -0.12770885229110718, 0.06561827659606934, 0.15020819008350372, -0.09607826918363571, -0.10684181749820709, -0.1261938065290451, -0.04175436496734619, -0.12315014004707336, 0.06990844011306763, -0.1464204490184784, -0.013468381017446518, 0.16921071708202362, 0.1184883639216423, 0.06301239877939224, -0.054281458258628845, 0.04017040133476257, 0.007424458861351013, -0.025257820263504982, -0.11687872558832169, 0.12215884774923325, -0.03845648467540741, -0.09815710783004761, -0.05015116557478905, -0.030209582298994064, 0.08509845286607742, 0.06732016056776047, 0.08759983628988266, -0.16423633694648743, -0.03943588584661484, -0.013022133149206638, -0.15369339287281036, -0.0630788579583168, 0.08282767236232758, -0.11247121542692184, 0.01513464655727148, -0.08763029426336288, -0.1458602100610733, -0.07798606902360916, 0.1411181539297104, 0.09691199660301208, 0.16421034932136536, -0.007422721013426781, -0.1301753669977188, 0.021358966827392578, -0.012460866011679173, 0.08661838620901108, -0.13188022375106812, 0.004817976616322994, -0.1045316681265831, -0.05256497859954834, 0.10944084078073502, 0.0018443855224177241, -0.036618415266275406, -0.02797992154955864, -0.017512569203972816, 0.08548176288604736, 0.13282689452171326, 0.1400693953037262, 0.0714913159608841, -0.07575340569019318, 0.04306956008076668, -0.022511515766382217, -0.06939896196126938, 0.14261656999588013, -0.12113568186759949, 0.12885913252830505, 0.004037804901599884, 0.030599068850278854, 0.06379639357328415, 0.14343303442001343, 0.06795965880155563, 0.040237314999103546, -0.11273970454931259, 0.024555087089538574, -0.11937561631202698, 0.057120855897665024], [-0.0020078772213310003, 0.06661839783191681, -0.15385709702968597, -0.1274803876876831, 0.07681991159915924, -0.14300119876861572, -0.1346101611852646, -0.16933739185333252, 0.13440066576004028, 0.06662099808454514, -0.03688772767782211, -0.05645117908716202, -0.0442081056535244, 0.10288281738758087, 0.05933769792318344, -0.09559020400047302, -0.11413885653018951, -0.13973259925842285, 0.05863310024142265, 0.11559616029262543, -0.08683255314826965, -0.1663161665201187, -0.1413632333278656, 0.15024520456790924, -0.07077497243881226, 0.08190703392028809, 0.053974851965904236, -0.03141053020954132, -0.10789474099874496, -0.11121763288974762, 0.04994441196322441, 0.09329257160425186, 0.030420366674661636, 0.01967880129814148, -0.14293617010116577, 0.13305146992206573, 0.10350331664085388, -0.04836611449718475, 0.17708706855773926, 0.03735175356268883, 0.017847102135419846, 0.1020040437579155, 0.08379237353801727, 0.043925940990448, -0.12745577096939087, -0.05267747864127159, 0.1361597776412964, -0.06898938864469528, -0.04358469322323799, -0.015603926964104176, -0.026992501690983772, 0.04895951598882675, 0.14779821038246155, -0.08641170710325241, -0.12888149917125702, -0.10485043376684189, 0.13246570527553558, 0.04711504653096199, -0.048760805279016495, 0.09948047250509262, 0.1410835236310959, 0.11357397586107254, 0.1292022317647934, -0.09060069173574448, 0.09914261847734451, -0.006300021428614855, 0.11538596451282501, 0.06468909233808517, 0.1172601580619812, 0.04460322856903076, -0.0978914201259613, 0.008245847187936306, 0.1465766578912735, 0.13570155203342438, -0.15127605199813843, -0.12618742883205414, -0.1290157288312912, 0.04980340227484703, 0.09646496921777725, -0.1102743074297905, -0.005307067651301622, 0.1097761020064354, 0.08184152841567993, 0.022688446566462517, 0.03641432151198387, 0.020179828628897667, -0.058238644152879715, 0.026945263147354126, 0.06807907670736313, 0.13240835070610046, 0.03983740881085396, 0.0928909033536911, -0.10358832776546478, -0.01900150068104267, -0.16623997688293457, -0.07438810914754868, 0.06470341235399246, 0.1438666731119156, -0.12390995770692825, -0.03362049534916878, 0.08657073229551315, -0.10208161175251007, 0.037743598222732544, 0.10944684594869614, 0.03131917491555214, -0.09365664422512054, -0.05086275190114975, 0.07890564948320389, 0.010342985391616821, -0.169027641415596, 0.06010638177394867, -0.17383381724357605, 0.07035656273365021, -0.10332777351140976, 0.17005804181098938, -0.03539431840181351, -0.025206733494997025, -0.1314784288406372, -0.05505222827196121, 0.12837187945842743, 0.16683705151081085, -0.04006810486316681, -0.021354813128709793, 0.06477764248847961, 0.13386137783527374, 0.026484688743948936, -0.042695820331573486, -0.023719826713204384], [0.06603453308343887, -0.15478165447711945, 0.046021830290555954, -0.05055417865514755, 0.08875568211078644, -0.11977056413888931, 0.029893269762396812, -0.004801083821803331, 0.05014488473534584, -0.136769637465477, 0.02945287898182869, 0.013399943709373474, 0.02135586552321911, 0.017584003508090973, 0.0529017336666584, 0.09423904865980148, -0.07260633260011673, 0.11203891783952713, -0.008212760090827942, -0.14259520173072815, -0.14965181052684784, -0.06690459698438644, 0.09670420736074448, 0.07178079336881638, 0.1006869301199913, -0.0021722859237343073, -0.04665195941925049, -0.11844374984502792, -0.049466315656900406, -0.015621251426637173, -0.14623725414276123, -0.07572322338819504, 0.045329175889492035, 0.07182397693395615, 0.15743385255336761, 0.149235799908638, 0.038382288068532944, -0.027813885360956192, 0.04255587235093117, 0.1162460595369339, -0.13508868217468262, -0.034297876060009, 0.1223774328827858, -0.04375636577606201, 0.02716740034520626, 0.032339733093976974, -0.10794968158006668, -0.057413361966609955, -0.06660709530115128, -0.15358921885490417, -0.16161131858825684, 0.10458914190530777, -0.07581072300672531, 0.006257564295083284, -0.06001397594809532, 0.13948720693588257, -0.07811641693115234, -0.04297112673521042, 0.11664308607578278, 0.11777092516422272, -0.12027532607316971, 0.09605136513710022, -0.00979791022837162, -0.0004927057889290154, -0.10003587603569031, -0.13648216426372528, 0.0830981656908989, -0.01267191581428051, -0.029647506773471832, 0.06197553128004074, 0.08191648870706558, -0.10433831810951233, 0.04616723582148552, -0.11447367072105408, 0.0952494889497757, 0.05527153238654137, 0.14568395912647247, -0.11907997727394104, -0.14915551245212555, -0.058771222829818726, -0.07755373418331146, -0.09076301753520966, 0.12505853176116943, -0.07968486100435257, -0.0706281065940857, 0.0736195296049118, -0.015057665295898914, 0.0953875482082367, -0.1287589818239212, -0.0014247298240661621, -0.14107680320739746, -0.14529339969158173, 0.12711714208126068, -0.10647369176149368, 0.008901049382984638, -0.034889962524175644, -0.04146744683384895, 0.11392046511173248, -0.15844236314296722, 0.031116383150219917, 0.1570390909910202, 0.014351481571793556, 0.10862075537443161, -0.1667053997516632, -0.03290658816695213, -0.08641223609447479, 0.07349132746458054, 0.16121546924114227, -0.08371128141880035, 0.040308501571416855, -0.08794393390417099, 0.04055526480078697, -0.01541877444833517, 0.14655683934688568, 0.04013780131936073, -0.03599785640835762, -0.1279914677143097, -0.10320581495761871, -0.09345992654561996, -0.09086602181196213, 0.10873914510011673, 0.006394146475940943, -0.001169660477899015, -0.11756721884012222, 0.13079945743083954, 0.07822214066982269, -0.14809899032115936, 0.05541333928704262], [0.0027161347679793835, -0.13989906013011932, -0.0141769303008914, 0.00297336233779788, -0.10320603847503662, 0.1481110006570816, 0.10796278715133667, 0.067290298640728, -0.015155746601521969, -0.03840611129999161, 0.07849287986755371, 0.03755936026573181, -0.1497790515422821, -0.00641345139592886, 0.10476130992174149, -0.009941764175891876, -0.14687515795230865, 0.08779078722000122, -0.0865476131439209, -0.04234542325139046, -0.11398015916347504, -0.0592782236635685, 0.06560052186250687, -0.001487939734943211, -0.09127670526504517, 0.10990141332149506, 0.1473211646080017, 0.12576548755168915, -0.0684121772646904, 0.001147765782661736, 0.16943998634815216, 0.09953032433986664, -0.1566266417503357, -0.12139257788658142, -0.025571458041667938, 0.12438523769378662, 0.008223132230341434, 0.02292708121240139, -0.12461155652999878, 0.05887521430850029, 0.08199048787355423, -0.034492600709199905, 0.07882708311080933, 0.14685893058776855, -0.09995546191930771, 0.0051857358776032925, -0.06961390376091003, 0.08794087916612625, 0.011862093582749367, 0.05112823098897934, 0.09020818769931793, -0.020889533683657646, 0.15095150470733643, 0.012940116226673126, -0.1182824894785881, 0.05239781737327576, 0.10475464910268784, -0.0626254677772522, 0.13836774230003357, 0.13850852847099304, -0.0651131197810173, 0.15312598645687103, -0.13335607945919037, -0.08910323679447174, -0.08609042316675186, 0.15351900458335876, 0.05893784016370773, -0.11320333927869797, -0.020633211359381676, 0.03629720211029053, -0.13222432136535645, 0.12076980620622635, 0.07651464641094208, 0.0028053491842001677, 0.14457927644252777, -0.02899748459458351, 0.13608087599277496, 0.04593667760491371, 0.04383028298616409, -0.11383850127458572, 0.11204952001571655, -0.03051929548382759, -0.1071803942322731, -0.14346295595169067, 0.01781199872493744, 0.014434284530580044, 0.07496743649244308, 0.13183169066905975, -0.12398851662874222, 0.08143847435712814, -0.11526349931955338, 0.11541055887937546, 0.11844787746667862, 0.009806547313928604, 0.06507683545351028, -0.054596398025751114, -0.00706279743462801, 0.07927180081605911, -0.014365144073963165, -0.03770829364657402, 0.006670414935797453, 0.11114127933979034, -0.021229557693004608, -0.09629037231206894, 0.07253775745630264, 0.1123453751206398, -0.13425421714782715, -0.09173424541950226, -0.11114594340324402, -0.05740448459982872, -0.037920158356428146, 0.06512156873941422, 0.030978012830018997, 0.03701668977737427, -0.03763773664832115, 0.1426641047000885, 0.019676361232995987, 0.15394899249076843, 0.060089390724897385, -0.1356496810913086, 0.06930525600910187, -0.04192382097244263, 0.08417156338691711, -0.13691571354866028, -0.07762929052114487, 0.13422739505767822, -0.09431011229753494, 0.0895301029086113], [-0.07775193452835083, 0.054469577968120575, 0.058299340307712555, 0.011641432531177998, -0.05682351812720299, -0.09728499501943588, -0.14698879420757294, -0.07444777339696884, 0.03579523041844368, 0.13191290199756622, 0.13153044879436493, 0.09621601551771164, 0.09844543784856796, 0.0672055035829544, -0.07107686251401901, 0.13917049765586853, 0.04734070226550102, 0.010508774779736996, -0.1199791431427002, 0.0124256806448102, -0.023323746398091316, 0.10799617320299149, 0.009664077311754227, -0.04077047109603882, 0.15077373385429382, -0.1322096735239029, -0.011750646866858006, -0.1419370323419571, 0.06581561267375946, 0.14783500134944916, -0.058977510780096054, 0.12051793187856674, -0.08390332013368607, 0.14339248836040497, 0.08857791870832443, 0.07986772060394287, -0.15035240352153778, 0.16948385536670685, 0.09470659494400024, -0.05926170200109482, 0.09813693910837173, -0.04970082268118858, 0.10362637788057327, -0.1329248994588852, 0.059701401740312576, 0.013141821138560772, -0.13422250747680664, -0.06336241215467453, -0.16057135164737701, -0.0036730337888002396, -0.07190821319818497, 0.04421904683113098, -0.06219666823744774, -0.06715422868728638, 0.07326588779687881, -0.15340903401374817, 0.13765741884708405, 0.11423856765031815, 0.07541877031326294, 0.027061142027378082, 0.1511119306087494, -0.10139968246221542, -0.143917977809906, -0.09472654014825821, 0.11200029402971268, -0.14477188885211945, 0.03112432360649109, 0.15150253474712372, 0.14302405714988708, 0.0007869888213463128, -0.13489103317260742, 0.10135266929864883, 0.02116633951663971, -0.1317221075296402, -0.13478049635887146, 0.11599250137805939, 0.04574664682149887, 0.08338958770036697, 0.11637971550226212, 0.006250051781535149, -0.001534594688564539, -0.02362469770014286, -0.05337740108370781, -0.012311738915741444, 0.09609043598175049, 0.05058865249156952, 0.1352171003818512, -0.01260632649064064, 0.041483864188194275, 0.053712766617536545, 0.025340907275676727, 0.07387194037437439, -0.07843343913555145, -0.002477125497534871, -0.13538502156734467, -0.029571717604994774, -0.012942451052367687, 0.033447250723838806, 0.1529121994972229, 0.031127547845244408, 0.06822161376476288, -0.0038037162739783525, 0.06345472484827042, -0.10586021840572357, -0.08625444024801254, -0.037135049700737, -0.012781296856701374, -0.1611030101776123, -0.1243365928530693, -0.08072317391633987, 0.12856930494308472, -0.07756906747817993, -0.015383416786789894, -0.10540246218442917, 0.05714965611696243, -0.06376297026872635, -0.06420982629060745, -0.011917141266167164, -0.15263043344020844, -0.1541777104139328, -0.0858941376209259, -0.14788252115249634, -0.13208462297916412, -0.05982077121734619, 0.10667752474546432, 0.01965935155749321, -0.003308650804683566, -0.062464095652103424], [0.1428331583738327, -0.027474816888570786, -0.1270936280488968, 0.034478627145290375, -0.1324416846036911, -0.03739236667752266, 0.0035420937929302454, 0.12297993898391724, 0.0014631340745836496, 0.07020509243011475, 0.16369293630123138, -0.12632882595062256, -0.07057017832994461, -0.050214048475027084, -0.030049724504351616, -0.03388392925262451, 0.1347564160823822, 0.07570100575685501, 0.027430767193436623, -0.06719359755516052, 0.09899089485406876, 0.13495220243930817, 0.10859888046979904, -0.1577562838792801, 0.05105600133538246, -0.15369874238967896, -0.10604681819677353, -0.14699245989322662, 0.04006702080368996, 0.0664823055267334, -0.13757936656475067, -0.02285444736480713, -0.0008648996590636671, -0.04743729904294014, -0.1278172880411148, -0.017848756164312363, 0.07365094125270844, -0.14151601493358612, -0.13846652209758759, -0.023913567885756493, 0.13296721875667572, 0.049689218401908875, 0.0692283883690834, -0.05077706277370453, 0.03429608419537544, -0.15554708242416382, 0.03898867592215538, 0.12190008163452148, 0.023815959692001343, 0.121726393699646, 0.06589548289775848, -0.12644332647323608, 0.12891130149364471, -0.14045068621635437, 0.01649351418018341, -0.12007510662078857, -0.1587614268064499, -0.045691296458244324, -0.07070957124233246, 0.0020805581007152796, 0.007201437372714281, -0.1510154753923416, -0.11912082135677338, 0.023826854303479195, -0.031774505972862244, 0.07423686981201172, 0.05840103328227997, 0.10023694485425949, 0.05419806018471718, -0.03545641899108887, 0.0517616793513298, -0.06651224941015244, -0.052457183599472046, 0.09802654385566711, -0.003652845975011587, 0.1008797436952591, 0.10205994546413422, 0.137302964925766, 0.1301686018705368, -0.010648920200765133, -0.059115443378686905, 0.017610816285014153, -0.04885990917682648, 0.0345597043633461, 0.0701829046010971, 0.05061445012688637, -0.039450790733098984, -0.10302584618330002, -0.010191102512180805, -0.11336494982242584, 0.13756199181079865, -0.05322190746665001, -0.11745823174715042, -0.1433296650648117, 0.045908693224191666, 0.03859453275799751, -0.04374893382191658, -0.15499325096607208, -0.032487425953149796, -0.083390012383461, 0.06396057456731796, 0.02909749560058117, -0.07755172252655029, -0.11162229627370834, 0.15231168270111084, -0.02329527772963047, 0.05923321470618248, -0.11183251440525055, -0.009110715240240097, -0.16347496211528778, 0.011885425075888634, 0.1691741943359375, -0.041451454162597656, -0.1566186100244522, -0.14748050272464752, -0.023596156388521194, -0.11237058788537979, -0.14501221477985382, 0.07924056798219681, -0.022977961227297783, -0.07388316094875336, 0.1164923906326294, -0.13409553468227386, 0.15590941905975342, -0.04688180983066559, 0.13202343881130219, 0.02588008902966976, 0.09483129531145096], [0.14602981507778168, -0.0726095661520958, 0.14931116998195648, -0.027982592582702637, -0.03175562992691994, -0.048765040934085846, 0.007540145888924599, -0.10014089941978455, 0.014599049463868141, 0.003857010742649436, 0.11439533531665802, 0.1311771124601364, -0.02687428705394268, -0.07448313385248184, -0.0730992928147316, -0.09595944732427597, -0.1450621634721756, -0.05652030184864998, -0.06419893354177475, 0.187825009226799, 0.013778960332274437, -0.053715310990810394, 0.008358223363757133, -0.12512725591659546, -0.01353430561721325, 0.02818070538341999, 0.02041427046060562, -0.026662033051252365, 0.17715440690517426, 0.14076170325279236, 0.05191313102841377, 0.033633243292570114, 0.036372363567352295, -0.07709917426109314, -0.04792841151356697, -0.1584327071905136, -0.012114823795855045, 0.03758661076426506, -0.08484283834695816, 0.15879158675670624, 0.11031577736139297, 0.07666798681020737, 5.571300789597444e-05, 0.11607309430837631, -0.12380442023277283, 0.09222157299518585, -0.12236670404672623, 0.08854381740093231, -0.0863230898976326, 0.12999096512794495, 0.13773754239082336, -0.10115642845630646, 0.003731772769242525, 0.1586214154958725, -0.012452729977667332, 0.10685263574123383, 0.03821665421128273, -0.04353118687868118, -0.047385480254888535, -0.09019778668880463, 0.09255214780569077, -0.04096207022666931, -0.012894976884126663, 0.00535632623359561, 0.04179010167717934, 0.14414522051811218, 0.1651332527399063, -0.030090758576989174, 0.10540778189897537, 0.08484746515750885, 0.027142787352204323, 0.14468006789684296, -0.11965014785528183, -0.12599383294582367, 0.10763107985258102, -0.022010672837495804, 0.09153544902801514, 0.11910830438137054, -0.14221984148025513, 0.11947397142648697, -0.028886670246720314, -0.003556985640898347, 0.04382734373211861, 0.15367072820663452, -0.15783262252807617, -0.001995844068005681, 0.06466733664274216, 0.07731189578771591, 0.07536327838897705, -0.11269664764404297, -0.07881905883550644, -0.04690666124224663, 0.11362957954406738, -0.07538256049156189, -0.09735265374183655, 0.15451933443546295, -0.1574731320142746, 0.13657070696353912, 0.056452441960573196, 0.11521457880735397, -0.0589289516210556, -0.15353579819202423, 0.10976339131593704, 0.11855597048997879, 0.08172151446342468, -0.10976328700780869, 0.07789641618728638, 0.08034667372703552, 0.05678941309452057, 0.07859267294406891, 0.0907636284828186, 0.021120736375451088, -0.15194879472255707, -0.00636965362355113, -0.12696737051010132, 0.0014772788854315877, -0.0011490589240565896, -0.14308395981788635, -0.032764941453933716, -0.14073237776756287, 0.11227291822433472, 0.16049450635910034, -0.11542148143053055, 0.1507280468940735, 0.0353754460811615, -0.04667527601122856, -0.14314252138137817, -0.019847160205245018], [0.08978162705898285, 0.07534423470497131, -0.15107524394989014, -0.1313478946685791, -0.025100085884332657, -0.07039466500282288, -0.08222003281116486, -0.0819084495306015, 0.08468975126743317, 0.1289636194705963, -0.020022816956043243, 0.14175327122211456, -0.05338456481695175, 0.005889819003641605, -0.08221649378538132, 0.0524437315762043, 0.14756953716278076, 0.024510914459824562, -0.03972308710217476, 0.07770825177431107, -0.13304243981838226, 0.11584071069955826, -0.004500913433730602, -0.01835027150809765, 0.023669138550758362, 0.03494005650281906, -0.12581411004066467, 0.06635468453168869, -0.096100352704525, 0.08147843182086945, 0.1174159049987793, 0.10284372419118881, 0.0007448597461916506, 0.01638840138912201, -0.11011962592601776, 0.07026278972625732, -0.0679587870836258, 0.017930425703525543, -0.04915672540664673, -0.11483718454837799, 0.03315277397632599, -0.12357920408248901, 0.0632752776145935, -0.0662652924656868, -0.16906265914440155, 0.0035281346645206213, -0.15037694573402405, -0.05220959335565567, 0.06526385247707367, -0.13571152091026306, 0.10305047035217285, -0.14909808337688446, -0.07858406007289886, 0.07623561471700668, -0.06554974615573883, -0.13593465089797974, -0.038793083280324936, -0.07495861500501633, 0.13229364156723022, -0.06393977999687195, 0.11747408658266068, 0.12833678722381592, -0.028541911393404007, 0.1232672706246376, -0.023672029376029968, 0.15743163228034973, -0.12932884693145752, 0.051224078983068466, 0.025352438911795616, -0.042714666575193405, 0.050145287066698074, 0.05989035218954086, -0.1721711903810501, -0.114806167781353, 0.066553495824337, 0.03690776973962784, 0.14226867258548737, 0.061201948672533035, 0.13973721861839294, 0.048801302909851074, -0.0728691965341568, -0.12931832671165466, 0.09777941554784775, 0.055824942886829376, -0.13987348973751068, -0.028061576187610626, 0.15611578524112701, 0.005934746470302343, -0.015210669487714767, -0.0027382723055779934, -0.09913191944360733, -0.034706711769104004, -0.035389725118875504, -0.15204668045043945, 0.08030480146408081, -0.019169505685567856, 0.09582623839378357, 0.09786135703325272, -0.08722849190235138, 0.049556978046894073, -0.019991597160696983, 0.11776071786880493, -0.07257291674613953, 0.09146434813737869, 0.028643393889069557, -0.05877505615353584, -0.12199781090021133, 0.035934608429670334, 0.07029232382774353, -0.06810446828603745, 0.022342108190059662, -0.056825801730155945, 0.059781718999147415, -0.10438840836286545, 0.14801345765590668, -0.061574578285217285, -0.011932911351323128, -0.16099205613136292, -0.11816199123859406, 0.011062257923185825, -0.07011568546295166, 0.11183764785528183, -0.16242869198322296, -0.046737536787986755, -0.044596441090106964, -0.16006013751029968, -0.1295667290687561, -0.02340383268892765], [0.0004621456319000572, -0.026676006615161896, 0.0175975002348423, 0.024644741788506508, -0.16607441008090973, 0.001930567086674273, 0.15040184557437897, 0.006154267583042383, 0.07428277283906937, -0.05390577018260956, 0.09251362085342407, 0.0819425955414772, 0.0037083132192492485, 0.13739418983459473, -0.1263519674539566, -0.16316474974155426, 0.09090536832809448, 0.10819296538829803, -0.13127030432224274, -0.07709251344203949, -0.160862997174263, -0.07778242975473404, 0.09310685843229294, 0.010327407158911228, -0.042104572057724, -0.049532122910022736, -0.19385772943496704, -0.07011029869318008, 0.054532743990421295, 0.16088411211967468, 0.10003512352705002, -0.13585644960403442, 0.1510518193244934, 0.08936234563589096, 0.08656065165996552, -0.001482511404901743, -0.04084886983036995, -0.06774298846721649, -0.16115932166576385, -0.06604104489088058, -0.09318032115697861, -0.02547057345509529, 0.1043679490685463, -0.013232296332716942, -0.1396048218011856, 0.15309761464595795, 0.14074008166790009, 0.08017237484455109, 0.14911717176437378, 0.016134154051542282, 0.14504174888134003, -0.1433950513601303, -0.04474709928035736, -0.08672560751438141, -0.09220563620328903, -0.12093085795640945, 0.0394267737865448, 0.07319261133670807, 0.020270496606826782, -0.10748030990362167, 0.06817666441202164, 0.050867050886154175, -0.03311208263039589, 0.06202578544616699, -0.05941193923354149, -0.05062909051775932, 0.14610789716243744, -0.07091213017702103, -0.023793933913111687, 0.11444404721260071, 0.06259479373693466, -0.13566377758979797, -0.10202731192111969, -0.15458738803863525, 0.052766017615795135, -0.0034827894996851683, -0.11988850682973862, 0.16980835795402527, 0.017281748354434967, -0.05817307159304619, 0.0027677665930241346, 0.054876603186130524, -0.14539065957069397, -0.07436453551054001, 0.10207278281450272, -0.03596843406558037, 0.012962447479367256, -0.017884938046336174, -0.13541468977928162, -0.10926060378551483, -0.007844856008887291, -0.09828901290893555, -0.15229158103466034, 0.1333896517753601, 0.15648970007896423, 0.08873046934604645, 0.12382831424474716, -0.10869903117418289, 0.14597631990909576, -0.1286076456308365, 0.1528339684009552, 0.15619589388370514, 0.0362735390663147, 0.12122467160224915, 0.01801290363073349, -0.08571213483810425, -0.021553386002779007, 0.03570543974637985, -0.1439022719860077, 0.02981165610253811, 0.1672654002904892, -0.06991995126008987, 0.09220512211322784, 0.12828826904296875, 0.14193448424339294, 0.16355769336223602, -0.010567380115389824, 0.16652272641658783, 0.0783970057964325, -0.11931699514389038, -0.012277860194444656, 0.05748506635427475, -0.09115526080131531, 0.0527915358543396, 0.06836195290088654, -0.10431712865829468, 0.012802451848983765, 0.07105015218257904], [-0.011723281815648079, -0.16356223821640015, -0.16008616983890533, -0.038483936339616776, 0.14411410689353943, -0.08495211601257324, 0.03627368062734604, -0.0782061517238617, -0.06036116182804108, 0.10346894711256027, 0.09910379350185394, -0.10862914472818375, -0.031056184321641922, -0.16341884434223175, -0.0007023048819974065, 0.05603335052728653, -0.12588369846343994, -0.07366827130317688, -0.022517167031764984, 0.17246295511722565, 0.1550428569316864, -0.15188679099082947, 0.06751225888729095, -0.04858491197228432, -0.030376944690942764, 0.07094656676054001, 0.15961363911628723, 0.1519964039325714, 0.043122608214616776, -0.029611166566610336, 0.10562573373317719, -0.06744762510061264, 0.018278319388628006, -0.025008060038089752, 0.03738636523485184, -0.09289155900478363, -0.10681497305631638, 0.15894600749015808, -0.12588267028331757, 0.010886168107390404, -0.11456233263015747, -0.14514844119548798, -0.16138651967048645, -0.11082367599010468, 0.11463326960802078, -0.07113610208034515, 0.1465795338153839, 0.020197059959173203, -0.03394753113389015, 0.03369680792093277, -0.0013272007927298546, 0.09819579869508743, -0.053831566125154495, -0.04466097801923752, 0.12114568054676056, 0.13367153704166412, 0.1359284520149231, -0.029482828453183174, 0.11387214809656143, 0.0014059183886274695, 0.006342812906950712, -0.09972254186868668, 0.013826286420226097, -0.09223958849906921, -0.03701100870966911, 0.1380155235528946, -0.08606322854757309, -0.13908980786800385, -0.14110825955867767, 0.14172431826591492, 0.005636611953377724, -0.03302374109625816, 0.07911096513271332, 0.11041513830423355, -0.060170989483594894, 0.06202356517314911, 0.0680365040898323, 0.0408761128783226, -0.11279355734586716, 0.11736699193716049, 0.0011160944122821093, -0.07773029059171677, -0.022212384268641472, -0.1347019523382187, -0.12065541744232178, 0.09154429286718369, -0.15911991894245148, -0.02183946967124939, 0.01955607160925865, -0.1386398822069168, 0.14050933718681335, -0.0901685506105423, -0.049785394221544266, -0.06705334037542343, -0.09131114929914474, -0.15615037083625793, 0.07663904875516891, 0.1261899173259735, -0.08955850452184677, 0.059545546770095825, 0.08791552484035492, 0.11959966272115707, 0.007895284332334995, -0.054031360894441605, -0.055059388279914856, 0.0757850632071495, 0.09813141822814941, -0.10939975082874298, -0.038971204310655594, 0.12231853604316711, 0.07867807149887085, 0.14203284680843353, 0.06624547392129898, -0.03781440854072571, 0.038792144507169724, 0.08091510087251663, -0.10830017179250717, 0.013894602656364441, 0.08359532058238983, -0.12286867946386337, 0.10388154536485672, 0.04216203838586807, 0.1702171415090561, -0.14527079463005066, -0.05078449845314026, 0.05317924544215202, -0.07225970178842545, 0.049967363476753235], [0.07797029614448547, -0.11327667534351349, -0.0009120304021053016, 0.010200951248407364, -0.036525800824165344, 0.14224588871002197, 0.11438038945198059, 0.055163320153951645, 0.06368429958820343, -0.019849425181746483, 0.14762799441814423, 0.07229134440422058, 0.06803017854690552, 0.10751508176326752, -0.06632541120052338, 0.10681325942277908, -0.10692804306745529, -0.05677446350455284, -0.04727247357368469, 0.1881319135427475, 0.10675550252199173, 0.05531509965658188, 0.06746214628219604, 0.01663203537464142, 0.14660370349884033, -0.007859881967306137, -0.032683148980140686, -0.10273225605487823, 0.08315517008304596, 0.09782329946756363, -0.02780189923942089, -0.13693355023860931, 0.10492968559265137, -0.14860209822654724, 0.07268358021974564, 0.14003205299377441, -0.013092131353914738, -0.06774550676345825, 0.08102816343307495, 0.11089403182268143, -0.0006430586217902601, 0.17008376121520996, -0.15910696983337402, -0.006215627305209637, 0.06436098366975784, 0.11841284483671188, -0.10979831218719482, 0.10965325683355331, 0.008277415297925472, -0.026364440098404884, -0.1265648454427719, 0.12931936979293823, -0.11077061295509338, -0.06643998622894287, -0.0742320567369461, 0.11215175688266754, 0.06272143870592117, 0.09678567945957184, -0.0629049763083458, 0.037173040211200714, 0.031874075531959534, 0.1126520112156868, 0.1258491426706314, -0.15524478256702423, 0.0842236876487732, -0.13815976679325104, 0.04070364683866501, -0.07366067916154861, -0.05395640432834625, -0.05746588855981827, 0.04654694348573685, -0.059660688042640686, 0.06289899349212646, -0.037518639117479324, -0.1431138664484024, 0.07340197265148163, -0.0801667645573616, -0.040960390120744705, 0.05640709027647972, -0.05887100100517273, -0.15110261738300323, -0.03858134150505066, 0.14938554167747498, 0.05531074479222298, 0.06384323537349701, 0.055764175951480865, -0.09124965220689774, -0.019725950434803963, 0.0894457995891571, -0.12023560702800751, -0.0759090855717659, -0.06433402746915817, -0.014642514288425446, 0.15272027254104614, -0.14768624305725098, 0.013669866137206554, -0.11118752509355545, 0.13265082240104675, -0.11880385875701904, -0.04069175943732262, 0.06885981559753418, 0.050228193402290344, -0.004682744853198528, -0.022534765303134918, -0.03991985693573952, -0.06946424394845963, -0.09560131281614304, -0.021407118067145348, -0.08311633765697479, -0.07724837958812714, 0.028615495190024376, 0.13694116473197937, 0.024665063247084618, -0.14547033607959747, -0.1251256912946701, 0.15619052946567535, -0.033140916377305984, -0.14655131101608276, 0.039995551109313965, 0.03993275389075279, 0.0553152896463871, -0.07158897072076797, -0.15723009407520294, 0.1448565572500229, -0.07061626762151718, 0.05411245673894882, 0.060297951102256775, 0.026999471709132195], [-0.05854702740907669, -0.07200048863887787, 0.03909717872738838, 0.11630095541477203, 0.1385032683610916, -0.11443599313497543, -0.11190908402204514, 0.14523747563362122, 0.08168567717075348, 0.12810076773166656, -0.0929126963019371, 0.022232146933674812, 0.07389785349369049, 0.04262806102633476, -0.03472430631518364, -0.16236867010593414, 0.02902594767510891, -0.0752585232257843, -0.023578258231282234, 0.14365248382091522, -0.04001658409833908, 0.09571175277233124, -0.09692735224962234, 0.06064656004309654, 0.16076530516147614, -0.13768844306468964, -0.18598535656929016, -0.025212634354829788, -0.12624797224998474, 0.0869303047657013, 0.1242184117436409, -0.009435565210878849, -0.06142203137278557, -0.02610674872994423, 0.06803897023200989, -0.1512996256351471, 0.020895833149552345, 0.03547054901719093, 0.03444667533040047, -0.06137658283114433, 0.06247299909591675, -0.14449389278888702, -0.08781090378761292, 0.11712274700403214, 0.08134687691926956, -0.1548294723033905, -0.0856337770819664, -0.10508549958467484, -0.08660800009965897, -0.082679383456707, -0.1495596319437027, -0.016841279342770576, 0.07384254783391953, 0.03601071238517761, 0.061522699892520905, -0.13962240517139435, 0.14725294709205627, 0.08960305154323578, 0.09521114826202393, 0.1118348240852356, 0.12141218781471252, 0.007137616164982319, -0.09283564984798431, 0.039736516773700714, 0.0982578843832016, 0.07723520696163177, 0.015849588438868523, -0.1550866812467575, -0.04781019315123558, 0.12374187260866165, 0.02284282073378563, 0.018799657002091408, -0.0630996972322464, -0.03883970156311989, 0.1424059420824051, 0.0597650445997715, 0.09036077558994293, 0.005695180501788855, 0.034385837614536285, -0.06859443336725235, 0.06580086797475815, -0.034828752279281616, -0.02534858137369156, 0.04965832456946373, 0.144609734416008, -0.1576206535100937, 0.10747694224119186, -0.06295192986726761, -0.006439175456762314, -0.15134204924106598, -0.053163591772317886, -0.0024401943664997816, -0.149362713098526, 0.015412288717925549, 0.13819439709186554, -0.13390672206878662, 0.0938776507973671, -0.04314780607819557, 0.046995118260383606, -0.09981471300125122, -0.10439229756593704, -0.11567916721105576, -0.173371359705925, -0.1195681169629097, 0.04640684649348259, 0.11704986542463303, 0.09860587120056152, 0.06613736599683762, -0.1303076297044754, -0.07864198088645935, -0.05195937305688858, -0.0645424872636795, 8.53200035635382e-05, 0.005912838038057089, -0.040799472481012344, -0.035153064876794815, 0.10619150847196579, 0.10276521742343903, -0.06564115732908249, 0.1272546499967575, 0.14162297546863556, -0.06993425637483597, -0.05886547267436981, 0.009357684291899204, 0.15656457841396332, 0.12808482348918915, -0.13758228719234467, -0.04388991370797157], [0.006365069188177586, -0.0021979084704071283, -0.10013670474290848, 0.12462106347084045, 0.06307754665613174, 0.11272589862346649, 0.10987522453069687, 0.09306636452674866, -0.022246263921260834, 0.026000550016760826, -0.0835375040769577, 0.07875972241163254, -0.11228398978710175, 0.05442659929394722, -0.0825573280453682, -0.1210293397307396, -0.11040088534355164, -0.16704128682613373, 0.08138226717710495, 0.11181996017694473, -0.0003498213191051036, -0.1139955073595047, -0.1527813822031021, -0.1639215499162674, -0.10418365150690079, 0.11493642628192902, -0.0599605031311512, -0.04209722578525543, -0.11057634651660919, -0.07286407798528671, 0.01831972785294056, 0.04704796522855759, -0.0854320079088211, -0.12339074909687042, -0.04926285147666931, -0.09501872956752777, -0.09541777521371841, 0.17269612848758698, 0.04149258881807327, 0.026391733437776566, -0.05094693601131439, -0.018385522067546844, 0.002653695410117507, 0.059121306985616684, 0.06142263859510422, -0.10758867859840393, -4.775929483002983e-06, -0.034715209156274796, 0.10679159313440323, 0.05027080699801445, 0.00397743284702301, -0.1112702414393425, 0.05001731216907501, -0.12167293578386307, -0.05987994745373726, -0.12775620818138123, 0.07130904495716095, -0.09845820814371109, -0.012444627471268177, 0.13569512963294983, -0.08886100351810455, -0.0011269038077443838, -0.04296792298555374, -0.14768178761005402, 0.11246376484632492, -0.11626381427049637, 0.0007376883877441287, 0.020039593800902367, 0.041324153542518616, 0.06027435511350632, -0.07686635106801987, -0.16302134096622467, 0.05028652772307396, 0.012642886489629745, 0.10196196287870407, 0.10285994410514832, 0.0913313552737236, -0.013967116363346577, -0.05374336242675781, 0.0898352637887001, -0.027345120906829834, -0.11001165956258774, 0.1179463118314743, 0.13954730331897736, -0.011236327700316906, -0.13249315321445465, -0.033024393022060394, 0.10358235985040665, 0.14309678971767426, -0.09022783488035202, -0.15432624518871307, 0.12197855859994888, -0.021887334063649178, 0.010244552977383137, 0.1487780064344406, -0.13504382967948914, 0.04996761307120323, -0.16415198147296906, -0.04084812477231026, 0.10605769604444504, -0.015556281432509422, 0.16676299273967743, 0.05229075253009796, -0.04766469448804855, -0.08816218376159668, -0.04209001734852791, -0.0464070588350296, -0.14668941497802734, -0.038203734904527664, -0.019616542384028435, 0.05109972879290581, 0.034913379698991776, 0.050383131951093674, -0.1625978797674179, -0.08226010948419571, 0.08260932564735413, 0.024155883118510246, -0.1627432405948639, 0.11471813917160034, 0.07382006198167801, 0.02800762839615345, -0.12614363431930542, 0.11030446738004684, 0.02954065054655075, 0.11851485073566437, 0.10046397894620895, 0.0928862988948822, -0.01407315768301487], [-0.12246891856193542, 0.06623013317584991, 0.03603658825159073, 0.08644736558198929, -0.10056855529546738, -0.10287746787071228, 0.12788595259189606, 0.06885746866464615, 0.12914590537548065, 0.07562436163425446, 0.0435459166765213, 0.05984550341963768, 0.13389484584331512, 0.03448551520705223, 0.050152841955423355, -0.1053919866681099, -0.01664602756500244, 0.06286919116973877, -0.06803581863641739, -0.06432180851697922, -0.07060813903808594, -0.08588410913944244, -0.09766322374343872, -0.02498595602810383, 0.12036063522100449, -0.0030828798189759254, -0.08658426254987717, -0.1313464194536209, 0.05556640401482582, -0.027531437575817108, 0.11875565350055695, 0.05553159862756729, 0.0781266838312149, -0.061172232031822205, 0.0685250386595726, -0.09622418135404587, 0.14928022027015686, 0.061464276164770126, -0.03724897280335426, -0.07359827309846878, -0.10501626133918762, 0.08340920507907867, -0.10816223919391632, 0.024822404608130455, -0.08287787437438965, 0.05308646336197853, 0.10174007713794708, 0.11000581830739975, 0.08800476044416428, -0.09348298609256744, -0.14030221104621887, 0.0750437080860138, -0.035777583718299866, -0.019933126866817474, -0.15721383690834045, -0.08352450281381607, -0.1448039561510086, 0.11980295181274414, -0.062278881669044495, 0.01827121339738369, -0.13253533840179443, 0.05869096517562866, -0.06455890834331512, 0.128962442278862, 0.13768760859966278, -0.049414392560720444, 0.1333615481853485, 0.1607143133878708, 0.12521101534366608, 0.11087492108345032, -0.0745880976319313, 0.01864548586308956, -0.15454258024692535, -0.13696350157260895, 0.15347550809383392, -0.05540012940764427, 0.07299641519784927, 0.07592248916625977, 0.1222628653049469, 0.1568230539560318, -0.08923925459384918, -0.14740881323814392, -0.023479685187339783, -0.11291190981864929, -0.14906717836856842, -0.03670206665992737, 0.09890205413103104, 0.02708013728260994, -0.054453734308481216, 0.06147995591163635, -0.08984673768281937, -0.15036864578723907, 0.09269094467163086, 0.0391046479344368, 0.07870692014694214, -0.14174148440361023, 0.10125003010034561, 0.021072402596473694, 0.02672499604523182, 0.0241165179759264, 0.11435840278863907, 0.029500842094421387, 0.05242980644106865, 0.1869433969259262, 0.07765045762062073, -0.00976524781435728, 0.06301451474428177, -0.04880639165639877, -0.09519670158624649, 0.02361110784113407, 0.11220771074295044, 0.12281594425439835, -0.06014707684516907, 0.0036155658308416605, -0.08244311809539795, 0.16947312653064728, 0.18228377401828766, 0.031032726168632507, 0.107082299888134, 0.0798821896314621, 0.036659739911556244, -0.14420180022716522, -0.022578682750463486, 0.049309831112623215, 0.06535877287387848, -0.04559610038995743, 0.1336725801229477, -0.10919291526079178], [0.002597558544948697, 0.06997565180063248, 0.07136078178882599, 0.04476337507367134, -0.08006524294614792, -0.100536048412323, 0.045400310307741165, 0.033507708460092545, -0.1002705991268158, 0.07202087342739105, -0.011251088231801987, 0.04766309633851051, 0.10779353231191635, -0.12365841865539551, -0.16038121283054352, 0.08605384826660156, 0.03803449869155884, 0.07208725810050964, 0.10234436392784119, 0.0945284515619278, 0.1442696899175644, -0.0008349313866347075, 0.00012148841051384807, -0.0277843214571476, -0.10489071160554886, 0.015967369079589844, -0.09831520915031433, 0.13304653763771057, 0.03390621393918991, 0.036097779870033264, -0.06019672751426697, -0.12997722625732422, -0.1389508694410324, -0.028891408815979958, -0.1397811472415924, 0.04131414368748665, 0.11601898819208145, 0.121041439473629, 0.05043521150946617, -0.07021969556808472, 0.10654417425394058, 0.12064900994300842, -0.08438822627067566, 0.07122781872749329, -0.06569356471300125, 0.10211922228336334, 0.15572330355644226, -0.1663384884595871, 0.11665037274360657, 0.04104528948664665, 0.147087961435318, -0.015108803287148476, 0.11033095419406891, -0.14212699234485626, -0.048141129314899445, -0.14500439167022705, 0.1548384577035904, 0.08375383168458939, 0.10781577229499817, 0.14919908344745636, -0.15378403663635254, -0.03925414755940437, -0.13548336923122406, -0.08735200762748718, -0.06865939497947693, -0.010112949647009373, -0.06577622890472412, -0.13891395926475525, -0.11991436779499054, -0.12769615650177002, 0.1495654135942459, 0.09110718220472336, 0.16322274506092072, -0.015399938449263573, -0.06048169359564781, 0.10502012073993683, -0.05974345654249191, -0.04338947311043739, -0.09208609908819199, -0.10788366943597794, -0.07907431572675705, -0.05347389727830887, 0.049341801553964615, -0.13972212374210358, -0.0902075245976448, 0.0907016396522522, -0.11383218318223953, -0.04524559527635574, 0.13184310495853424, -0.11042159795761108, -0.1251363456249237, -0.008215125650167465, -0.06903889030218124, 0.03051145374774933, 0.09676401317119598, -0.12422879785299301, 0.034828465431928635, -0.018054302781820297, -0.11849334090948105, 0.01757708191871643, -0.06716105341911316, -0.008911690674722195, -0.1690467894077301, -0.035958245396614075, -0.06966914981603622, 0.09617520868778229, -0.14490030705928802, -0.022890403866767883, -0.01794874481856823, 0.06355664879083633, 0.034606195986270905, 0.07749371230602264, 0.0871923565864563, 0.1104186475276947, -0.055093031376600266, 0.026016196236014366, 0.10439031571149826, 0.16957977414131165, 0.12229125201702118, -0.053045108914375305, -0.10384394228458405, -0.016762016341090202, 0.0718868151307106, 0.005115213803946972, 0.008960303850471973, 0.11578117311000824, -0.05233365297317505, 0.10142208635807037], [-0.04182160645723343, -0.06131432577967644, -0.015552819706499577, 0.09316004812717438, -0.11619057506322861, -0.09536221623420715, 0.14129745960235596, -0.09331266582012177, 0.019145280122756958, 0.017383961006999016, 0.024348067119717598, 0.06911409646272659, -0.09543130546808243, 0.005039040464907885, -0.03627271577715874, 0.05570729821920395, -0.11803054809570312, 0.018016600981354713, -0.09149002283811569, -0.036156490445137024, -0.09627601504325867, -0.10710059106349945, 0.08839808404445648, -0.07785124331712723, 0.14384832978248596, 0.1395137459039688, 0.04599439725279808, -0.11081009358167648, -0.024309903383255005, 0.11319108307361603, -0.03201518580317497, -0.12202738225460052, 0.01552499271929264, 0.13208642601966858, 0.08151444792747498, -0.11395267397165298, 0.05076535791158676, -0.06787553429603577, -0.08809611201286316, 0.13070528209209442, -0.1042739674448967, -0.07299955189228058, -0.17193180322647095, 0.11612116545438766, 0.09083794057369232, 0.039013344794511795, 0.08092804253101349, -0.12165707349777222, -0.026385344564914703, -0.040653958916664124, -0.13894066214561462, 0.007967113517224789, 0.15277184545993805, -0.1475476175546646, -0.07488986849784851, -0.10627362132072449, -0.07530122995376587, 0.12961523234844208, 0.010889759287238121, -0.00407873559743166, 0.0917280986905098, -0.11602413654327393, -0.019415713846683502, -0.015125880017876625, 0.047559164464473724, 0.1877579540014267, 0.09608497470617294, -0.03306853398680687, 0.10402943193912506, -0.10836722701787949, -0.1493217796087265, -0.09954509884119034, -0.07377186417579651, 0.0041692438535392284, 0.031278591603040695, 0.13161498308181763, -0.017054466530680656, -0.008172163739800453, -0.14597700536251068, -0.15626654028892517, 0.005044145509600639, -0.025950605049729347, 0.11271950602531433, -0.09581711143255234, -0.15539385378360748, -0.011367452330887318, -0.081514373421669, -0.14104099571704865, 0.08572342246770859, -0.12034251540899277, 0.02140883170068264, -0.07238418608903885, -0.09190531820058823, -0.04263516888022423, 0.09450547397136688, -0.029352974146604538, 0.08421121537685394, -0.14704573154449463, 0.08814776688814163, -0.07673705369234085, 0.07028859108686447, 0.0250233244150877, 0.17157335579395294, -0.028877509757876396, -0.13823434710502625, -0.15007413923740387, 0.1041792705655098, 0.0007783900946378708, 0.09342778474092484, -0.0945378765463829, -0.0724121704697609, -0.16782468557357788, 0.133223757147789, 0.05203668028116226, 0.1507285088300705, -0.04557794705033302, 0.06440271437168121, 0.059800438582897186, -0.04369204491376877, 0.09908469766378403, 0.15715818107128143, 0.1401740312576294, 0.10126090794801712, -0.06905251741409302, -0.04347937926650047, 0.168539896607399, -0.1648968607187271, 0.05000535398721695], [0.060920439660549164, 0.04949047043919563, 0.15406712889671326, -0.053762003779411316, -0.045750271528959274, -0.13888877630233765, -0.012029310688376427, -0.08752799779176712, -0.06229980289936066, 0.09887734055519104, 0.15198606252670288, -0.09250293672084808, -0.03888652101159096, 0.15141956508159637, -0.13557328283786774, -0.12560100853443146, -0.11778825521469116, 0.0223060492426157, -0.10722607374191284, 0.18089723587036133, -0.02745209075510502, -0.010178686119616032, -0.08818484842777252, -0.011891130357980728, 0.05135742574930191, 0.07558373361825943, 0.09227030724287033, 0.03246356174349785, 0.11825461685657501, 0.11766652762889862, 0.09490100294351578, -0.13789016008377075, -0.17112308740615845, -0.0845809280872345, 0.0593535341322422, -0.04382408410310745, -0.024924572557210922, 0.144785538315773, 0.14565591514110565, 0.13932447135448456, -0.07132307440042496, 0.0819929838180542, -0.09074538201093674, -0.10797671973705292, -0.10915794223546982, -0.051125187426805496, -0.02709892764687538, 0.12869182229042053, -0.12782347202301025, 0.08280298858880997, 0.0029255677945911884, -0.05715511739253998, -0.000138872375828214, -0.06878376752138138, 0.025192251428961754, -0.02793545089662075, -0.10256104916334152, -0.12415102869272232, 0.035066552460193634, 0.12657585740089417, -0.03381309658288956, 0.07838835567235947, 0.04519171640276909, 0.131852924823761, 0.12361833453178406, 0.028301198035478592, 0.059132564812898636, 0.12067867070436478, -0.007926254533231258, -0.06473401933908463, -0.1519434005022049, 0.09994638711214066, 0.08803121745586395, -0.13543178141117096, 0.02288089506328106, -0.03440573811531067, -0.13360841572284698, 0.13365481793880463, -0.09933166205883026, -0.1524808406829834, 0.023531127721071243, 0.07739288359880447, -0.14608201384544373, 0.06060706079006195, 0.018025731667876244, -0.11257895827293396, -0.09884835034608841, 0.028216414153575897, -0.05922417715191841, 0.1530022919178009, 0.09692662954330444, 0.1655290126800537, -0.07107007503509521, 0.14716073870658875, -0.029172662645578384, -0.041729412972927094, -0.1547223925590515, -0.15847983956336975, 0.06908928602933884, -0.014369232580065727, -0.10415144264698029, 0.02529500238597393, -0.06595560908317566, 0.05841749161481857, -0.05243790149688721, 0.11257939040660858, 0.1017000749707222, -0.021126899868249893, -0.056161876767873764, -0.05273296684026718, 0.07530944794416428, -0.07753051817417145, -0.10425823926925659, -0.14228759706020355, 0.010801920667290688, 0.0017543178983032703, 0.1416672319173813, -0.1063225120306015, -0.03070157952606678, 0.10404355078935623, 0.11085700243711472, -0.03440060466527939, -0.018204180523753166, -0.0711899995803833, 0.149421826004982, -0.12758558988571167, 0.1342906355857849, 0.06295717507600784], [0.012766805477440357, -0.14513182640075684, -0.0008054422796703875, -0.03363350033760071, -0.11715736240148544, 0.06306435167789459, 0.1547161489725113, 0.021831784397363663, 0.07240013033151627, -0.13586771488189697, -0.023725949227809906, -0.13145838677883148, 0.03766180947422981, 0.1267002522945404, 0.04818166047334671, -0.14234213531017303, -0.044955063611269, 0.022930024191737175, -0.03912966325879097, 0.10320701450109482, 0.09632503986358643, 0.02407817728817463, -0.03707532584667206, -0.07537338137626648, -0.12088654935359955, -0.05478363111615181, -0.054714322090148926, 0.05347335338592529, 0.057950738817453384, -0.13415516912937164, -0.04695556312799454, -0.08854393661022186, -0.09964557737112045, 0.101458840072155, -0.15356586873531342, -0.019379377365112305, -0.11591306328773499, 0.12071891129016876, 0.018036842346191406, -0.06334853172302246, -0.01047760620713234, 0.07183047384023666, 0.16080309450626373, -0.09669609367847443, 0.12950891256332397, 0.14485383033752441, 0.12907396256923676, 0.03091363050043583, 0.029234137386083603, -0.03114130161702633, 0.07511334121227264, 0.007102685514837503, 0.055122260004282, -0.023552190512418747, 0.08054507523775101, 0.10171384364366531, -0.11526834964752197, 0.08823133260011673, 0.0077937147580087185, 0.11862200498580933, -0.03895438835024834, -0.041188664734363556, 0.13847669959068298, -0.0756036639213562, 0.1312400847673416, -0.005714886821806431, 0.013421671465039253, -0.07316412776708603, 0.0144908856600523, -0.06968154013156891, -0.15420088171958923, -0.06750262528657913, -0.1484202742576599, 0.15954752266407013, 0.16432420909404755, -0.030144644901156425, 0.07140278071165085, -0.028405284509062767, 0.05018545687198639, 0.10981609672307968, 0.14504478871822357, -0.040763016790151596, 0.08510918915271759, -0.0736277848482132, 0.16302655637264252, -0.1623631715774536, 0.034846726804971695, 0.05764104425907135, 0.07414352893829346, -0.12111921608448029, 0.15337572991847992, -0.10677500814199448, 0.034920789301395416, -0.08204155415296555, -0.06454221159219742, 0.009027509950101376, -0.01870802231132984, -0.12679439783096313, -0.11011134833097458, -0.04766013100743294, 0.09015509486198425, 0.12416300922632217, -0.16869579255580902, -0.05482157692313194, -0.13635893166065216, -0.16624528169631958, 0.05115509405732155, 0.03823902830481529, -0.11384743452072144, -0.09613852947950363, -0.14467759430408478, 0.12863649427890778, 0.15126533806324005, -0.12578368186950684, -0.08082423359155655, 0.13299715518951416, 0.13675914704799652, -0.015828927978873253, -0.15048575401306152, -0.16030047833919525, 0.018909119069576263, -0.04840715229511261, -0.16162805259227753, 0.03481293097138405, -0.14483250677585602, 0.09921161085367203, -0.07010948657989502, -0.16146360337734222], [0.01737482286989689, -0.038105834275484085, 0.1533786654472351, 0.02220483124256134, -0.06766373664140701, 0.07125212997198105, -0.07954595983028412, 0.14374639093875885, -0.04366621375083923, 0.007261303719133139, -0.1165103018283844, -0.002439770381897688, 0.10051427036523819, 0.08762527257204056, -0.08446158468723297, -0.08588281273841858, 0.10196136683225632, 0.13481958210468292, -0.12083323299884796, 0.019621707499027252, -0.0575687400996685, 0.11651955544948578, -0.15285862982273102, -0.10226282477378845, 0.08702690154314041, -0.15940812230110168, 0.02069018967449665, -0.013612575829029083, -0.03767535090446472, -0.017955783754587173, 0.02084832265973091, -0.0988386869430542, 0.0204690583050251, 0.11889040470123291, 0.06994224339723587, -0.12096645683050156, -0.11896561831235886, -0.05240080878138542, -0.04159463196992874, -0.021607575938105583, 0.035680267959833145, -0.14012165367603302, -0.1610231250524521, -0.03899640217423439, 0.06016816571354866, -0.10271363705396652, 0.04551682621240616, -0.08661184459924698, 0.1124691590666771, 0.1362762451171875, -0.07268854975700378, -0.07549387961626053, -0.013481792993843555, -0.08256634324789047, 0.04896852374076843, 0.09478488564491272, 0.06667374074459076, 0.10237175971269608, -0.012607983313500881, -0.10570725798606873, 0.08451277762651443, -0.04922369495034218, 0.040111832320690155, -0.0670660212635994, -0.12034576386213303, 0.18620039522647858, -0.1033182442188263, 0.15893281996250153, 0.1528633087873459, 0.09410430490970612, 0.055102989077568054, 0.02178749442100525, 0.09700426459312439, -0.06770004332065582, -0.01662948727607727, 0.03672463446855545, -0.049292609095573425, -0.032122883945703506, -0.05506346747279167, 0.015737831592559814, 0.10226184129714966, -0.10322053730487823, 0.1439102441072464, 0.07592112571001053, 0.10354011505842209, 0.023560794070363045, 0.0947001501917839, -0.15201178193092346, 0.11644843220710754, -0.14358621835708618, 0.11319272220134735, 0.15890012681484222, -0.05246666818857193, -0.09773404151201248, 0.0828915685415268, -0.0746157318353653, 0.1213199719786644, -0.15426532924175262, -0.1225207969546318, 0.1650741845369339, 0.06901656836271286, 0.11651496589183807, -0.025144722312688828, 0.06530716270208359, 0.03412098065018654, 0.03974495828151703, 0.05722377821803093, 0.016931431367993355, -0.018223894760012627, -0.08096607029438019, 0.06527385860681534, -0.10415245592594147, 0.04548665136098862, -0.08884613960981369, 0.05085804685950279, 0.11211109161376953, -0.06311537325382233, -0.14222681522369385, -0.10403793305158615, 0.02054882049560547, 0.12526990473270416, -0.13287292420864105, 0.09991662204265594, -0.04842137545347214, 0.021313991397619247, 0.1566823273897171, -0.06017196923494339, -0.03142388537526131], [-0.16407084465026855, -0.12810401618480682, -0.08328837901353836, -0.1460060477256775, 0.049230750650167465, -0.029614990577101707, 0.0203363299369812, -0.11680446565151215, -0.08261139690876007, 0.04296521469950676, 0.16201423108577728, -0.136286199092865, 0.13256284594535828, 0.039052583277225494, 0.027661889791488647, 0.006872307974845171, -0.14826689660549164, -0.14260956645011902, 0.03932319954037666, -0.022311601787805557, 0.12520785629749298, -0.042005956172943115, -0.12139188498258591, 0.06820531189441681, -0.07278793305158615, 0.0025810375809669495, 0.07674598693847656, 0.13715031743049622, 0.08233772218227386, 0.06833727657794952, 0.07098359614610672, 0.14796191453933716, -0.0869634747505188, -0.1526498794555664, -0.06809994578361511, -0.11170737445354462, 0.05924522876739502, 0.06278855353593826, 0.054506201297044754, -0.15294410288333893, 0.06657560169696808, -0.03552249073982239, 0.0360863097012043, 0.011480405926704407, -0.05765901133418083, -0.11863327026367188, -0.1349407136440277, 0.12853148579597473, 0.1350799798965454, 0.05522811785340309, -0.1362084448337555, -0.01999020017683506, 0.07853969186544418, 0.08894772827625275, -0.12989093363285065, -0.16862022876739502, 0.075617216527462, -0.046896982938051224, -0.059017594903707504, -0.1618628352880478, 0.0387224443256855, 0.11527510732412338, 0.14205242693424225, 0.010090864263474941, 0.019961727783083916, -0.1283644437789917, 0.018938105553388596, -0.05067313835024834, 0.06241455674171448, -0.041010670363903046, -0.07734542340040207, -0.13812749087810516, -0.07063096016645432, -0.13766224682331085, -0.1088738664984703, 0.14062754809856415, -0.02699407748878002, -0.013198311440646648, 0.11358033865690231, 0.1416001170873642, 0.019994297996163368, 0.10084020346403122, -0.05010642483830452, -0.05466639623045921, -0.024654608219861984, 0.07336170226335526, 0.06700624525547028, -0.054363951086997986, -0.11273474246263504, 0.054171957075595856, -0.12543989717960358, 0.03358563035726547, 0.06974857300519943, 0.058124229311943054, 0.0757516622543335, 0.1292661875486374, -0.008908353745937347, 0.06080494076013565, 0.04516659304499626, -0.1036466434597969, -0.16533824801445007, -0.07553510367870331, 0.00023846040130592883, 0.07154298573732376, 0.10735172033309937, -0.09090757369995117, -0.12572400271892548, 0.13713382184505463, -0.13486196100711823, -0.014955605380237103, 0.002418900141492486, -0.009059187956154346, -0.1442132294178009, -0.15055178105831146, -0.10832474380731583, 0.03495965152978897, 0.044950734823942184, -0.10365255922079086, 0.052892863750457764, 0.11088388413190842, -0.1436750590801239, 0.0016843057237565517, 0.054819267243146896, -0.08810888230800629, -0.054612066596746445, 0.03302551805973053, 0.12184321880340576, 0.10927065461874008], [0.030584020540118217, 0.07615406066179276, -0.03548438847064972, 0.03889865800738335, -0.017639270052313805, -0.08519988507032394, 0.06342905759811401, 0.021779820322990417, -0.028226347640156746, 0.14167876541614532, -0.15025664865970612, -0.06570401042699814, -0.14206562936306, 0.06658414006233215, 0.059887222945690155, -0.0613827258348465, 0.062471576035022736, -0.024171793833374977, 0.07499244809150696, 0.010075449012219906, -0.029346346855163574, 0.13635198771953583, -0.07644277811050415, -0.1188567653298378, 0.036088842898607254, 0.14710232615470886, -0.06725849211215973, -0.14860038459300995, -0.0445459745824337, 0.011646467261016369, -0.12069866061210632, 0.06605981290340424, 0.18222707509994507, -0.015660852193832397, -0.051594894379377365, -0.03256436437368393, -0.13188707828521729, 0.12194575369358063, -0.04349479451775551, -0.012744488194584846, 0.04842469468712807, -0.03262216970324516, 0.06374011933803558, -0.14333468675613403, 0.10782916843891144, 0.14674973487854004, 0.045397982001304626, 0.13373106718063354, -0.11980408430099487, -0.008545923978090286, 0.03371347486972809, 0.0179968923330307, -0.031411319971084595, -0.047866445034742355, -0.11380840837955475, -0.039892278611660004, -0.1168425902724266, 0.055625174194574356, -0.10345171391963959, -0.13520823419094086, -0.018056200817227364, 0.02961145155131817, 0.11269215494394302, 0.03473768010735512, -0.0305386520922184, 0.09708855301141739, 0.027587825432419777, -0.13208842277526855, 0.002263115718960762, 0.12075439095497131, -0.03982658311724663, -0.059218429028987885, -0.10757730901241302, -0.10607636719942093, -0.018901880830526352, 0.0532771460711956, -0.13606885075569153, 0.16277462244033813, 0.10202962160110474, 0.05701524764299393, 0.10843941569328308, -0.14155448973178864, -0.015569816343486309, 0.0391056090593338, 0.1050380989909172, 0.06732113659381866, -0.08515635877847672, 0.14502552151679993, -0.10617207735776901, 0.11762773245573044, 0.16213497519493103, -0.10969901084899902, 0.0659443810582161, -0.12690433859825134, -0.02763364650309086, -0.0015143465716391802, 0.035806480795145035, 0.1109134629368782, 0.048929743468761444, -0.03851276636123657, 0.10685351490974426, 0.1433984786272049, -0.1786469668149948, 0.13747426867485046, -0.13474808633327484, 0.09600485116243362, -0.07429665327072144, -0.11682365089654922, -0.017089910805225372, 0.03702681511640549, -0.02950855903327465, -0.11958096921443939, 0.031541887670755386, 0.13093072175979614, -0.04493838548660278, -0.07099094986915588, -0.028013763949275017, -0.139878511428833, 0.0984937772154808, 0.09991304576396942, 0.025101618841290474, -0.060635045170784, 0.08558863401412964, 0.02535029500722885, 0.12501192092895508, 0.048380106687545776, 0.08116410672664642, 0.006571571808308363], [-0.037986669689416885, 0.14009393751621246, 0.012798023410141468, 0.04215242713689804, -0.08528266102075577, 0.044427335262298584, 0.014930463396012783, -0.09068718552589417, -0.14536958932876587, 0.022610848769545555, 0.10835426300764084, 0.026329275220632553, -0.09645797312259674, 0.045862771570682526, -0.13072729110717773, -0.015611947514116764, -0.11197690665721893, -0.10750799626111984, -0.08626995235681534, -0.0012298551155254245, -0.1515992432832718, -0.0367710217833519, -0.011596224270761013, -0.011286613531410694, -0.033211298286914825, 0.09930606186389923, -0.0920536145567894, 0.0072931949980556965, -0.12292887270450592, -0.12377715855836868, 0.036304693669080734, 0.03892849013209343, 0.1207575649023056, 0.04033331200480461, 0.13437971472740173, -0.1552916169166565, -0.13856713473796844, -0.12820640206336975, -0.09883773326873779, 0.022584041580557823, 0.023234516382217407, -0.1430293470621109, 0.13545304536819458, 0.10613834112882614, -0.07159547507762909, -0.13917073607444763, -0.10681040585041046, -0.12852278351783752, -0.1358906477689743, 0.013897562399506569, -0.08955337852239609, -0.031210249289870262, 0.17362940311431885, 0.0637134462594986, 0.13912077248096466, -0.12818175554275513, -0.03049374558031559, 0.0142270652577281, -0.11535509675741196, -0.15097863972187042, 0.06237218528985977, 0.042558491230010986, -0.04333050176501274, 0.009612797759473324, -0.009936638176441193, -0.13459493219852448, -0.04428919777274132, -0.1037830114364624, -0.131454199552536, 0.14539571106433868, 0.0358411930501461, 0.07036314159631729, -0.08258231729269028, -0.03453020378947258, -0.0884542390704155, -0.1290796399116516, -0.12283525615930557, 0.08604390174150467, 0.05845469981431961, 0.010596909560263157, -0.01900775358080864, 0.13067632913589478, -0.13646261394023895, -0.05533270537853241, -0.04725242033600807, 0.09680455923080444, 0.16344060003757477, -0.0784946009516716, 0.13365960121154785, 0.11381155997514725, 